===============================================================================
======     This file was produced by the Carnegie Mellon SLM Toolkit     ======
===============================================================================
This backoff trigram model uses a vocabulary of 387 words,
   which begins "-TON", "</s>" "<s>" ...
This is an OPEN-vocabulary model (type 1)
   (OOVs were mapped to UNK, which is treated as any other vocabulary word)
It was constructed using 41875 trigrams and their counts

The UNIGRAM component is based on 36505 words
   there are 113 distinct unigram counts,  maximum unigram count is 5211
   there are 0 zerotons;  P(zeroton) was limited to 1.000 of P(singleton)
   unigram freq-of-freq.: 0 86 43 38 15 ...
   Good-Turing discount ratios:  (none)

The BIGRAM component is based on 3415 distinct bigrams
   maximal bigram count is 5211
   bigram freq-of-freq.: 1650 504 258 154 113 87 54 ...
   1650 bigrams occurred 1 or fewer times and were excluded;
   only 1765 bigrams were retained
   Good-Turing discount ratios:  0.00 0.70 0.74 0.89 0.90 0.64

The TRIGRAM component is based on 8535 distinct trigrams
   maximal trigram count is 789
   trigram freq-of-freq.: 5105 1225 588 326 207 ...
   5105 trigrams occurred 1 or fewer times and were excluded;
   only 3430 trigrams were retained
   Good-Turing discount ratios:  0.00 0.65 0.67 0.74

This file is in the ARPA-standard format introduced by Doug Paul.

p(wd3|wd1,wd2)= if(trigram exists)           p_3(wd1,wd2,wd3)
                else if(bigram w1,w2 exists) bo_wt_2(w1,w2)*p(wd3|wd2)
                else                         p(wd3|w2)

p(wd2|wd1)= if(bigram exists) p_2(wd1,wd2)
            else              bo_wt_1(wd1)*p_1(wd2)

All probs and back-off weights (bo_wt) are given in log10 form.

Data formats:

Beginning of data mark: \data\
ngram 1=nr            # number of unigrams
ngram 2=nr            # number of bigrams
ngram 3=nr            # number of trigrams

\1-grams:
p_1     wd      bo_wt_1

\2-grams:
p_2     wd1 wd2 bo_wt_2

\3-grams:
p_3     wd1 wd2 wd3

end of data mark: \end\

\data\
ngram 1=388
ngram 2=1765
ngram 3=3430

\1-grams:
-2.1090 <UNK>	-0.1237
-4.2613 -TON	0.0000
-0.8454 </s>	-3.7170
-99.0000 <s>	-0.8023
-2.6703 A	-0.8210
-4.2613 A-	0.0000
-3.2836 ABOUT	-0.4944
-3.8634 ACTUALLY	0.0000
-3.7173 AFTER	-0.5303
-3.1474 AGAIN	-0.5977
-3.7842 AH	0.0000
-2.0360 ALBANY	-1.0127
-3.1000 ALL	-1.3944
-3.6593 ALRIGHT	-0.3095
-2.9942 ALSO	-0.6539
-3.4484 AM	-0.9383
-3.7173 AN	-0.5398
-1.6804 AND	-0.7259
-4.2613 ANNOYING	0.0000
-3.7842 ANOTHER	-0.6974
-3.7842 ANY	-0.3981
-4.2613 ANYWAY	-0.4544
-4.2613 ANYWHERE	0.0000
-2.6759 ARE	-0.6998
-4.2613 ARE_THERE	-0.4544
-4.0852 AROUND	0.0000
-3.6593 AS	-0.2851
-2.1326 AT	-1.1676
-2.0881 ATLANTA	-0.9670
-4.2613 AVOID	0.0000
-3.1644 AVON	-0.9349
-2.6329 BACK	-1.0699
-3.7173 BAD	-0.2185
-4.2613 BALT-	0.0000
-2.2791 BALTIMORE	-0.9019
-3.3071 BATH	-0.3436
-3.4832 BE	0.0000
-4.2613 BEAUTIFUL	-0.4544
-4.2613 BECAUSE	0.0000
-4.2613 BEFORE	-0.5205
-3.9603 BEGIN	-0.1867
-3.9603 BELIEVE	0.0000
-4.0852 BEST	0.0000
-4.2613 BETWEEN	0.0000
-4.0852 BLUE	-0.5594
-2.2464 BOSTON	-0.7580
-3.7842 BRING	-0.7423
-2.0048 BUFFALO	-0.9831
-2.4620 BURLINGTON	-0.9010
-3.3863 BUT	-0.2112
-4.2613 BUTTON	-0.5210
-3.3863 BY	-0.4258
-3.9603 BYE	-0.4543
-3.4162 CAN	-0.5885
-4.0852 CAN'T	-0.2724
-4.2613 CANADA	-0.4739
-3.3582 CANANDAIGUA	-0.4270
-2.1230 CANCEL	-1.3389
-4.2613 CAN_I	-0.5200
-3.7173 CAN_YOU	-0.2213
-4.0852 CARE	-0.2055
-3.7842 CHANGE	-0.3273
-4.2613 CHAR-	-0.4544
-4.2613 CHARL-	-0.4739
-2.0412 CHARLESTON	-0.9331
-2.1294 CHARLOTTE	-1.0391
-4.0852 CHICA-	-0.2055
-2.1090 CHICAGO	-1.0890
-4.2613 CINCINNA-	-0.4544
-2.0881 CINCINNATI	-0.9255
-3.8634 CITIES	0.0000
-3.3071 CITY	-0.2831
-4.2613 CLE-	0.0000
-3.9603 CLEAR	-0.9491
-2.0545 CLEVELAND	-1.1893
-2.1183 COLUMBUS	-0.8679
-4.2613 COMMAND	-0.4544
-4.2613 CONDITIONS	-0.5181
-4.2613 CONGESTED	0.0000
-2.7562 CONTINUE	-1.1901
-4.2613 COOL	0.0000
-4.2613 CORRECT	0.0000
-4.0852 COULD	-0.2717
-3.9603 CURRENTLY	-0.3449
-4.2613 D	0.0000
-3.5624 DANSVILLE	-0.4755
-4.2613 DELAY	0.0000
-3.5210 DESTINATION	-0.7113
-3.6593 DESTINATIONS	-0.8874
-2.0452 DETROIT	-1.0333
-3.7173 DID	-0.1536
-4.0852 DIDN'T	-0.5763
-4.2613 DIFFERENT	-0.5195
-4.0852 DIRECT	-0.2706
-2.6931 DIRECTLY	-1.5595
-2.7700 DO	-0.8873
-3.8634 DOES	-0.1401
-4.2613 DOING	-0.4544
-2.3023 DON'T	-1.2042
-2.0121 DONE	-1.5833
-2.8463 DOWN	-1.4417
-4.0852 DREW	-0.2493
-4.0852 DRIVE	-0.5572
-3.3319 EAST_AURORA	-0.8787
-3.9603 EITHER	-0.9021
-4.2613 ELIMINATE	0.0000
-3.9603 ELSE	-0.3474
-3.9603 END	-0.1668
-2.6179 ENGINE	-1.0741
-4.2613 EQUIVALENT	0.0000
-3.2836 ERASE	-0.5434
-4.2613 ERROR	-0.5212
-4.2613 EXAMPLE	0.0000
-3.6593 EXCELLENT	-0.4142
-4.0852 FIGURE	-0.5748
-3.1000 FINALLY	-0.5437
-3.8634 FIND	-0.5330
-3.1474 FINE	-0.7736
-4.2613 FINISH	0.0000
-3.1821 FINISHED	-1.1261
-3.5210 FIRST	-0.3133
-4.2613 FOLLOW	0.0000
-3.1821 FOR	-0.5138
-2.6759 FORGET	-0.8713
-3.7173 FRANKLINVILLE	-0.8362
-1.2857 FROM	-1.7018
-4.0852 GAME	0.0000
-4.2613 GAVE	0.0000
-3.5624 GENEVA	-0.4974
-2.5495 GET	-1.1909
-4.0852 GIVE	-0.2708
-1.3483 GO	-1.6159
-3.5210 GOAL	-1.2316
-3.4484 GOALS	-0.8242
-3.7842 GOES	-0.5565
-3.0572 GOING	-0.7665
-2.7173 GOOD	-0.6597
-3.9603 GOT	-0.1866
-2.3345 GREAT	-1.1008
-3.4162 HAVE	-1.0357
-4.2613 HAVING	0.0000
-3.8634 HELLO	-0.3794
-3.9603 HERE	-0.1198
-3.5624 HI	-0.3067
-4.0852 HOLD	-0.2718
-4.2613 HOP	0.0000
-3.7173 HORNELL	-0.2670
-3.1821 HOW	-0.5418
-4.2613 HOW'S	0.0000
-3.4484 HOW_ABOUT	-0.2685
-3.9603 HUH	-0.1198
-2.2859 I	-0.8110
-2.9091 I'D	-1.0599
-4.2613 I'LL	0.0000
-2.0425 I'M	-1.4360
-3.5210 IF	-0.4066
-4.2613 IGNORE	-0.5175
-2.1358 IN	-1.1264
-4.2613 INDIAN-	0.0000
-2.2340 INDIANAPOLIS	-0.7516
-2.1714 INSTEAD	-1.5436
-4.0852 INTO	0.0000
-2.7298 IS	-0.2791
-3.6593 IS_THERE	-1.1734
-2.2836 IT	-0.6874
-3.9603 IT'S	0.0000
-4.2613 IT-	0.0000
-2.5711 I_NEED	-2.0428
-2.2657 I_WANT	-1.6138
-3.8634 I_WOULD	-0.2519
-3.8634 JAMESTOWN	-0.2617
-4.0852 JOB	-0.5102
-3.4832 JUST	-0.0917
-4.0852 KEEP	0.0000
-3.9603 KNOW	0.0000
-3.0438 LAST	-0.5696
-4.2613 LE-	0.0000
-3.6593 LEAVE	-0.2362
-3.9603 LET	-0.1866
-1.8505 LET'S	-1.5491
-4.0852 LEXI-	-0.2055
-3.9603 LEXING-	-0.9021
-2.0412 LEXINGTON	-1.0415
-2.7630 LIKE	-1.1499
-4.2613 LOCATED	0.0000
-3.7842 LONG	-0.7637
-3.7842 LOOKS	-0.3918
-3.8634 LYON	-0.3794
-3.1644 LYONS	-0.3178
-4.0852 MAKE	0.0000
-3.6593 MANY	-0.9533
-4.0852 MAYBE	0.0000
-3.5624 ME	-0.2274
-4.2613 MEANT	0.0000
-4.2613 MILWAU-	-0.4544
-2.1294 MILWAUKEE	-0.9473
-3.6593 MIND	-0.3062
-4.2613 MINUTE	-0.4544
-3.9603 MM	0.0000
-4.2613 MOMENT	-0.5212
-2.1524 MONTREAL	-0.9285
-3.9603 MORE	0.0000
-3.7173 MOUNT_MORRIS	-0.0493
-2.0309 MOVE	-1.0717
-4.2613 MUST	0.0000
-3.5624 MY	-0.5652
-3.2199 NEED	-1.2950
-4.2613 NEEDED	-0.4739
-3.9603 NEEDS	-0.9216
-3.5624 NEVER	-1.2201
-4.0852 NEW	-0.5771
-2.1246 NEW_YORK	-1.0221
-3.9603 NEXT	0.0000
-4.0852 NICE	0.0000
-1.9691 NO	-0.9384
-3.9603 NOR	0.0000
-4.0852 NORTH	-0.2250
-2.7915 NOT	-0.2231
-1.9249 NOW	-0.9272
-2.6081 OF	-0.5428
-3.6081 OF_THE	-0.2208
-3.5624 OH	-0.0607
-4.2613 OHIO	0.0000
-1.9101 OKAY	-0.8867
-4.2613 OLEAN	0.0000
-2.6703 ON	-1.0704
-3.1474 ONE	-0.1641
-4.2613 ONLY	0.0000
-3.4162 OR	-0.0891
-3.0852 OTHER	-0.5837
-3.8634 OUR	-0.5536
-3.9603 OUT	0.0000
-2.5892 OVER	-1.1011
-4.2613 PARDON	0.0000
-3.9603 PART	-0.4531
-4.0852 PASS	-0.2525
-4.0852 PATH	-0.2250
-4.0852 PENNSYLVANIA	-0.5297
-3.2613 PENN_YAN	-0.4720
-2.1803 PHILADELPHIA	-1.0063
-4.0852 PHILLY	-0.2055
-3.9603 PI-	-0.1867
-4.2613 PINK	0.0000
-2.0505 PITTSBURGH	-1.0588
-3.9603 PLACE	-0.1866
-3.3863 PLAN	-0.2878
-4.2613 PLANE	-0.4981
-4.2613 PLANNING	0.0000
-2.7842 PLEASE	-0.6964
-4.2613 POSSIBLE	0.0000
-3.8634 PROCEED	-0.9582
-3.9603 PUT	-0.9491
-3.4484 QUIT	-1.0792
-4.2613 RAL-	-0.4544
-2.0896 RALEIGH	-1.0781
-4.2613 REACH	0.0000
-4.2613 READY	0.0000
-4.2613 REALLY	0.0000
-4.2613 REDO	0.0000
-4.2613 RELEASE	-0.5190
-3.7842 REROUTE	-0.1791
-2.1075 RICHMOND	-0.9050
-3.7842 RID	-0.7634
-3.1474 RIGHT	-0.2781
-3.7842 ROCHESTER	-0.3209
-2.3863 ROUTE	-0.7100
-3.9603 ROUTES	-0.4500
-3.7173 S-	0.0000
-3.5210 SAID	-0.0538
-3.9603 SAY	0.0000
-4.2613 SAYING	0.0000
-2.0955 SCRANTON	-1.0034
-3.3863 SCRATCH	-0.9971
-3.5210 SEE	-0.1190
-3.9603 SEGMENT	-0.9021
-1.9249 SEND	-1.7354
-4.2613 SENT	0.0000
-3.9603 SH-	-0.1827
-3.9603 SHORTEST	-0.9672
-2.8381 SHOULD	-0.7937
-3.7173 SHOW_ME	-0.4110
-4.0852 SKIP	-0.2684
-3.3582 SO	-0.3169
-4.0852 SODUS	-0.2250
-3.6081 SORRY	-0.0552
-3.7842 SOUTH	-0.3989
-4.2613 SPEECH	-0.5212
-4.0852 SPLENDID	-0.5102
-2.5892 START	-1.1008
-4.2613 STARTED	-0.5180
-3.9603 STARTING	-0.3450
-4.2613 STATION	0.0000
-3.0572 STAY	-1.1132
-3.8634 STILL	-0.1422
-3.4162 STOP	-0.3575
-3.9603 STRAIGHT	-0.1636
-4.2613 SUPPOSED	-0.4739
-4.2613 SYRACU-	-0.4544
-2.0133 SYRACUSE	-1.1665
-3.8634 T-	-0.1193
-1.7241 TAKE	-1.6621
-4.0852 TAKING	-0.5572
-3.6593 TALK	-0.9540
-4.2613 TALKING	-0.5121
-4.2613 TELL	-0.5211
-3.6593 TELL_ME	-0.5350
-4.0852 TERRIBLE	0.0000
-4.2613 TEST	-0.4544
-3.4484 THANK	-1.1132
-3.9603 THANKS	0.0000
-3.7173 THANK_YOU	-0.3605
-2.0682 THAT	-1.0402
-2.5370 THAT'S	-0.9605
-1.3494 THE	-1.3372
-2.1679 THEN	-0.5537
-4.2613 THENCE	0.0000
-3.3319 THERE	-0.4102
-4.2613 THEY	-0.4544
-3.4162 THINK	-0.3977
-3.8634 THIRD	-0.2350
-2.9713 THIS	-0.5194
-4.0852 THOUGH	-0.2055
-3.9603 THREE	-0.1833
-1.7562 THROUGH	-1.3502
-0.9856 TO	-1.4142
-4.0852 TODAY	-0.5102
-2.0911 TOLEDO	-0.9675
-4.2613 TORON-	-0.4544
-2.1030 TORONTO	-1.0068
-4.0852 TR-	0.0000
-1.3986 TRAIN	-1.5944
-2.6703 TRAINS	-0.8348
-3.1152 TRAVEL	-1.2840
-3.5624 TRIP	-0.3952
-3.3319 TRY	-0.4238
-4.2613 TRYING	-0.4739
-4.2613 TURING	-0.5212
-4.2613 TWO	0.0000
-2.4418 UH	-0.1093
-3.4162 UM	-0.0905
-4.0852 UNDERSTAND	-0.2723
-3.3071 UNDO	-0.9301
-4.2613 UNTIL	-0.5211
-2.4451 UP	-1.0218
-2.8142 USE	-0.6173
-3.9603 VERY	-0.3473
-2.0208 VIA	-1.2068
-4.2613 VOICE	-0.4544
-4.2613 WA-	-0.4544
-2.7494 WANT	-0.9056
-3.7842 WANTED	-0.3452
-3.5210 WANT_TO	-1.2330
-3.1310 WARSAW	-0.5082
-3.3071 WAS	-0.3746
-4.0852 WASHING-	-0.2055
-2.0781 WASHINGTON	-0.8565
-3.9603 WASHINGTON_D_C	-0.2813
-3.5210 WATKINS_GLEN	-0.1826
-3.3582 WAY	-0.9922
-3.1474 WE	-0.3544
-3.7842 WE'LL	-0.7359
-3.2199 WE'RE	-0.7246
-3.3319 WELL	-0.3270
-4.2613 WENT	-0.5136
-3.6593 WERE	-0.2655
-3.7842 WEST	-0.0678
-4.2613 WHA-	0.0000
-2.9603 WHAT	-0.3478
-3.7173 WHAT'S	-0.4121
-4.0852 WHAT_ARE	-0.5572
-3.7173 WHAT_IS	-0.3273
-2.6228 WHERE	-0.7895
-4.0852 WHERE'S	-0.2690
-3.8634 WHICH	-0.2519
-4.2613 WHOLE	0.0000
-3.8634 WHY	-0.1423
-4.0852 WILL	-0.5769
-3.3582 WITH	-0.2404
-3.7173 WONDERFUL	-0.2430
-4.0852 WORRY	-0.5769
-3.3071 WOULD	-0.7774
-3.4484 YEAH	-0.1016
-3.9603 YELLOW	-0.5017
-2.9289 YES	-0.3849
-4.0852 YORK	-0.2055
-3.9603 YORKSHIRE	-0.3390
-2.7770 YOU	-0.2887
-3.6081 YOU'RE	-0.2640

\2-grams:
-1.1553 <UNK> <UNK> 0.1092
-0.4607 <UNK> </s> 1.7214
-1.9036 <UNK> A 0.0000
-1.8025 <UNK> AND 0.0000
-2.3109 <UNK> BUFFALO 0.0000
-2.3109 <UNK> DESTINATION 0.0000
-2.1128 <UNK> DONE 0.7249
-2.3109 <UNK> FOR 0.0000
-1.8706 <UNK> FROM 0.0000
-1.8706 <UNK> GO -0.5524
-2.1128 <UNK> IN 0.0000
-2.1128 <UNK> IT 0.0000
-1.8706 <UNK> MOVE -0.2160
-2.1128 <UNK> OF 0.0000
-2.3109 <UNK> OKAY 0.0000
-2.1128 <UNK> ON 0.0000
-2.3109 <UNK> OVER -0.3156
-2.3109 <UNK> ROUTE -0.2439
-2.3109 <UNK> ROUTES -0.2677
-2.3109 <UNK> SCRANTON 0.0000
-2.3109 <UNK> SYRACUSE -0.1761
-2.1128 <UNK> TAKE 0.3167
-2.3109 <UNK> THAT 0.0000
-1.5021 <UNK> THE 0.2472
-2.1128 <UNK> THROUGH 0.0000
-1.4150 <UNK> TO 0.0000
-1.8706 <UNK> TRAIN -0.3424
-1.9036 <UNK> UH 0.0000
-2.3109 <UNK> UP 0.0000
-2.1128 <UNK> YOU 0.0000
-0.0001 </s> <s> -0.0464
-1.9467 <s> <UNK> -0.2011
-3.5721 <s> -TON 0.0000
-1.6644 <s> </s> 1.6639
-3.5721 <s> ACTUALLY 0.0000
-3.1648 <s> AH 0.0000
-3.0637 <s> ALBANY -0.2162
-2.4165 <s> ALL -0.6837
-2.8724 <s> ALRIGHT -0.0145
-3.5721 <s> ALSO 0.0000
-1.7219 <s> AND -0.7593
-3.0637 <s> ARE -0.3428
-3.0637 <s> AVON -0.2601
-1.9771 <s> BACK -0.1646
-3.1648 <s> BAD -0.0198
-3.5721 <s> BOSTON -0.3565
-3.5721 <s> BUFFALO -0.4498
-3.1648 <s> BUT 0.0000
-3.5721 <s> BYE -0.2677
-2.6761 <s> CAN -0.2208
-1.3464 <s> CANCEL 0.0396
-3.5721 <s> CAN_I 0.0668
-2.8724 <s> CAN_YOU 0.0202
-3.1317 <s> CHARLESTON -0.6484
-3.1648 <s> CHARLOTTE -0.3700
-3.1648 <s> CHICAGO -0.1620
-3.1648 <s> CINCINNATI -0.4436
-3.3740 <s> CLEAR 0.4837
-3.1317 <s> COLUMBUS -0.6320
-2.1154 <s> CONTINUE -0.2970
-3.5721 <s> DETROIT 0.0000
-2.6036 <s> DO -0.6333
-1.7219 <s> DON'T -0.4184
-2.4388 <s> DONE -0.0685
-3.5721 <s> DRIVE 0.1226
-3.5721 <s> END -0.2677
-2.5414 <s> ERASE -0.1345
-2.8144 <s> EXCELLENT -0.4256
-2.6383 <s> FINALLY -0.2636
-3.5721 <s> FIND 0.0000
-3.1648 <s> FINE 0.0000
-3.3740 <s> FINISHED 0.4355
-3.3740 <s> FIRST 0.0000
-3.5721 <s> FOLLOW 0.0000
-2.0363 <s> FORGET -0.0781
-1.9932 <s> FROM -0.1916
-3.1648 <s> GET 0.0784
-1.0247 <s> GO -0.3889
-2.0943 <s> GOOD 0.0718
-1.5714 <s> GREAT -0.0165
-2.8724 <s> HAVE -0.5441
-3.1317 <s> HELLO -0.3318
-2.7175 <s> HI 0.0465
-3.5721 <s> HOLD -0.1821
-2.3751 <s> HOW -0.2055
-3.5721 <s> HOW'S 0.0000
-2.7175 <s> HOW_ABOUT -0.0133
-1.7307 <s> I -0.2732
-2.3373 <s> I'D 0.2825
-3.5721 <s> I'LL 0.0000
-1.4036 <s> I'M -0.0836
-3.5721 <s> IF 0.0000
-3.5721 <s> IGNORE 0.0668
-2.6761 <s> INSTEAD -0.4669
-3.0637 <s> IS -0.2015
-2.8144 <s> IS_THERE 0.1180
-3.5721 <s> IT 0.0000
-2.0363 <s> I_NEED 0.4017
-1.7830 <s> I_WANT 0.0541
-3.5721 <s> I_WOULD -0.2018
-3.5721 <s> JUST 0.0000
-3.5721 <s> LEAVE -0.3144
-3.3740 <s> LET -0.0593
-1.4388 <s> LET'S 0.2981
-3.5721 <s> LOOKS -0.0618
-2.8144 <s> MILWAUKEE -0.1447
-3.5721 <s> MONTREAL -0.2612
-1.2878 <s> MOVE -0.0724
-2.7633 <s> NEVER -0.2553
-3.0637 <s> NEW_YORK 0.2309
-3.5721 <s> NICE 0.0000
-1.1747 <s> NO -0.0570
-2.7175 <s> NOT -0.0634
-1.3373 <s> NOW -0.1086
-3.1317 <s> OH 0.0000
-1.1144 <s> OKAY -0.0148
-3.5721 <s> PENNSYLVANIA 0.1226
-3.0637 <s> PITTSBURGH 0.0277
-2.3373 <s> PLEASE -0.2420
-3.3740 <s> PUT 0.4837
-2.6761 <s> QUIT 0.1047
-2.7175 <s> RALEIGH -0.1465
-3.1648 <s> REROUTE 0.0287
-3.1648 <s> RIGHT 0.0000
-2.4871 <s> ROUTE -0.9403
-3.5721 <s> SAY 0.0000
-3.1317 <s> SCRANTON 0.0092
-2.5714 <s> SCRATCH -0.1103
-1.2275 <s> SEND -0.2663
-3.0637 <s> SHOW_ME 0.1141
-3.3740 <s> SKIP 0.0263
-2.8724 <s> SO 0.1608
-3.1648 <s> SORRY 0.0000
-3.3740 <s> SPLENDID 0.0917
-2.0099 <s> START -0.0264
-3.3740 <s> STARTING 0.1021
-2.7175 <s> STAY -0.2730
-3.1648 <s> STOP 0.0000
-2.7633 <s> SYRACUSE -0.0215
-1.1964 <s> TAKE -0.2531
-3.0637 <s> TELL_ME 0.0832
-3.3740 <s> TERRIBLE 0.0000
-2.8724 <s> THANK 0.2688
-3.3740 <s> THANKS 0.0000
-3.1317 <s> THANK_YOU 0.0826
-2.7633 <s> THAT -0.3391
-1.8254 <s> THAT'S -0.3439
-1.7585 <s> THE 0.0110
-2.3373 <s> THEN -0.1563
-3.1648 <s> THIS -0.2634
-2.8724 <s> THROUGH -0.0639
-2.5714 <s> TO -0.0250
-3.3740 <s> TOLEDO -0.1255
-3.3740 <s> TORONTO -0.0884
-3.5721 <s> TRAIN 0.0000
-2.3373 <s> TRAVEL -0.5351
-3.0637 <s> TRY 0.1000
-2.0099 <s> UH -0.2334
-3.1317 <s> UM 0.0000
-2.5134 <s> UNDO 0.1177
-3.5721 <s> UP 0.0000
-2.2703 <s> USE -0.2712
-3.5721 <s> WASHINGTON 0.0000
-3.3740 <s> WE -0.1792
-3.1317 <s> WE'RE 0.1998
-3.1317 <s> WELL -0.0012
-2.4165 <s> WHAT -0.4801
-2.8724 <s> WHAT'S 0.0586
-3.3740 <s> WHAT_ARE 0.0917
-3.0637 <s> WHAT_IS -0.0432
-1.8662 <s> WHERE -0.2752
-3.3740 <s> WHERE'S 0.0263
-3.5721 <s> WHICH 0.0000
-3.1648 <s> WHY -0.0279
-3.5721 <s> WITH 0.0000
-3.1317 <s> WONDERFUL 0.1317
-2.7175 <s> YEAH -0.0253
-2.1047 <s> YES -0.0455
-2.8144 <s> YOU -0.0670
-3.1648 <s> YOU'RE -0.0970
-0.9890 A <UNK> 0.0582
-1.7467 A DIFFERENT 0.0668
-1.7467 A GOAL 0.3237
-1.7467 A MINUTE 0.0668
-1.7467 A MOMENT 0.0668
-1.3063 A ROUTE -0.6561
-0.2109 A TRAIN -0.1497
-1.7467 A TRIP -0.2626
-0.7483 ABOUT IT -0.1671
-1.1556 ABOUT THAT 0.0000
-0.3468 ABOUT THE -0.4189
-0.6997 AFTER NEW_YORK 0.0000
-0.2924 AFTER WASHINGTON -0.2206
-0.1526 AGAIN </s> 2.4383
-1.0878 AGAIN AT -0.2213
-0.4129 ALBANY </s> 1.5997
-2.1867 ALBANY AGAIN 0.2822
-1.9775 ALBANY ALBANY -0.2348
-1.4163 ALBANY AND -0.2656
-2.3848 ALBANY BURLINGTON -0.4412
-1.9775 ALBANY DOWN 0.6518
-1.9444 ALBANY GO -0.6687
-1.4888 ALBANY INSTEAD -0.5352
-1.5302 ALBANY SYRACUSE -0.9508
-2.1867 ALBANY THEN 0.0000
-1.6851 ALBANY THROUGH -0.2308
-0.4810 ALBANY TO -0.8185
-1.5760 ALBANY TRAIN -0.6117
-1.5302 ALBANY VIA -0.2713
-1.3170 ALL <UNK> 0.0000
-0.6173 ALL DONE 0.3651
-0.2863 ALL RIGHT 0.0925
-0.8086 ALL THE -0.2236
-0.7577 ALRIGHT LET'S 0.0000
-0.7577 ALRIGHT NOW 0.0000
-0.7577 ALRIGHT UH 0.0000
-1.4344 ALSO </s> 3.2626
-0.5798 ALSO NEED 0.3424
-0.3245 ALSO WANT -0.5819
-1.4344 ALSO WANT_TO 0.2859
-0.2430 AM DONE 0.3072
-0.8026 AM FINISHED 0.4355
-0.8026 AM I -0.2428
-0.5016 AN <UNK> 0.0000
-0.6997 AN ENGINE -0.1534
-0.6997 AN ERROR 0.0668
-2.2304 AND <UNK> 0.0540
-2.7388 AND </s> 3.2626
-2.0391 AND ALBANY -0.1720
-2.5407 AND ANOTHER -0.0927
-2.0391 AND ATLANTA -0.5933
-2.5407 AND BACK -0.0948
-1.7703 AND BALTIMORE -0.7300
-2.2984 AND BOSTON -0.5015
-2.5407 AND BRING -0.0927
-1.2714 AND BUFFALO -0.4458
-2.3315 AND BURLINGTON -0.0492
-2.2984 AND CANANDAIGUA 0.0894
-1.4529 AND CHARLESTON -0.5146
-1.5040 AND CHARLOTTE -1.1658
-1.7381 AND CHICAGO -0.2864
-1.5832 AND CINCINNATI -0.5328
-1.9300 AND CLEVELAND -0.7169
-1.6055 AND COLUMBUS -0.2430
-1.6290 AND DETROIT -0.1078
-2.7388 AND DO -0.2748
-2.3315 AND FINALLY -0.0833
-2.7388 AND FRANKLINVILLE 0.4486
-2.7388 AND FROM 0.0000
-1.4693 AND GO -0.3130
-2.2984 AND I -0.2237
-2.7388 AND I'D 0.6063
-1.7381 AND INDIANAPOLIS -0.6438
-2.5407 AND IT 0.0000
-2.2984 AND I_NEED 0.7360
-1.9811 AND I_WANT 0.3936
-1.7081 AND LET'S -0.1457
-1.7081 AND LEXINGTON -0.8841
-1.8428 AND MILWAUKEE -0.8027
-1.9300 AND MONTREAL -0.4274
-1.8050 AND NEW_YORK -0.0560
-1.5040 AND NOW -0.0465
-2.5407 AND ON 0.3654
-1.8842 AND PHILADELPHIA -0.7382
-1.4371 AND PITTSBURGH -0.5492
-1.9300 AND RALEIGH -0.6429
-1.5225 AND RICHMOND -0.4579
-1.5040 AND SCRANTON -0.4260
-1.5832 AND SEND -0.9321
-1.5040 AND SYRACUSE -0.6595
-2.2984 AND TAKE 0.5281
-2.2304 AND THE -0.2227
-0.8273 AND THEN -0.3199
-1.6290 AND TO -0.1052
-1.4863 AND TOLEDO -0.3911
-1.5225 AND TORONTO -0.8428
-2.7388 AND UH 0.0000
-2.7388 AND UP 0.0000
-2.5407 AND WARSAW -0.3392
-1.7381 AND WASHINGTON -0.7796
-0.2254 ANOTHER TO 0.0000
-0.6327 ANOTHER TRAIN -0.4130
-0.6327 ANY OTHER 0.0000
-0.4346 ANY PLACE -0.0593
-0.1556 ANYWAY </s> 3.2626
-1.5430 ARE </s> 3.2317
-1.3007 ARE AT -0.4764
-0.2144 ARE THE -0.9601
-1.7411 ARE THEY 0.0668
-1.5430 ARE WE 0.0000
-0.9834 ARE YOU -0.2065
-0.1556 ARE_THERE </s> 3.2626
-0.3173 AS WELL -0.5643
-1.1319 AT ALBANY -0.1704
-2.2875 AT AT 0.0000
-1.5299 AT ATLANTA 0.1255
-2.0894 AT BALTIMORE -0.3730
-2.0894 AT BATH 0.0000
-1.5299 AT BOSTON -0.2412
-2.0894 AT BUFFALO 0.0000
-1.5299 AT BURLINGTON -0.7304
-1.2288 AT CHARLESTON -0.1170
-1.4787 AT CHARLOTTE 0.3448
-2.0894 AT CHICAGO 0.0000
-1.4330 AT CINCINNATI -0.2359
-2.2875 AT CITY 0.0000
-1.5299 AT CLEVELAND -0.4558
-1.7791 AT COLUMBUS -0.0784
-1.7791 AT DETROIT -0.0680
-1.2025 AT INDIANAPOLIS -0.2192
-1.2868 AT LEXINGTON -0.2244
-1.3916 AT MILWAUKEE 0.0374
-1.5299 AT MONTREAL -0.4089
-1.5879 AT NEW_YORK -0.6829
-1.2569 AT PHILADELPHIA -0.1263
-1.7791 AT PITTSBURGH -0.1280
-1.4787 AT RALEIGH 0.2981
-1.2025 AT RICHMOND -0.6433
-1.5879 AT SCRANTON -0.6578
-1.3916 AT SYRACUSE -0.0333
-1.8803 AT TOLEDO -0.0497
-1.1542 AT TORONTO -0.4257
-2.2875 AT WARSAW 0.0000
-1.7791 AT WASHINGTON 0.1420
-0.3565 ATLANTA </s> 1.5964
-1.3632 ATLANTA AND -0.0375
-2.3317 ATLANTA FIRST 0.0000
-2.3317 ATLANTA GO -0.3450
-1.4357 ATLANTA INSTEAD 0.3431
-1.9244 ATLANTA RALEIGH -0.5508
-2.3317 ATLANTA SCRANTON 0.0000
-1.4771 ATLANTA THROUGH -0.1322
-0.5740 ATLANTA TO -0.4927
-1.6320 ATLANTA TRAIN -0.4206
-1.4357 ATLANTA UP -0.5441
-1.5229 ATLANTA VIA -0.2556
-0.2272 AVON </s> 2.5129
-0.5863 AVON AND -0.8429
-1.2859 AVON INSTEAD 0.0518
-1.3767 BACK </s> 3.1299
-0.5315 BACK TO -0.1621
-0.2218 BACK UP -0.3461
-0.3173 BAD </s> 2.9389
-0.3171 BALTIMORE </s> 1.7485
-1.0303 BALTIMORE AND -0.2229
-2.1401 BALTIMORE FROM 0.0000
-2.1401 BALTIMORE INSTEAD 0.0518
-2.1401 BALTIMORE OVER -0.3156
-1.9420 BALTIMORE PHILADELPHIA -0.2146
-1.7328 BALTIMORE THEN -0.1189
-1.7328 BALTIMORE THROUGH -0.1677
-0.6421 BALTIMORE TO -0.2925
-1.6317 BALTIMORE UP 0.1069
-1.7328 BALTIMORE VIA 0.0000
-2.1401 BALTIMORE WASHINGTON -0.4513
-0.3757 BATH </s> 2.8139
-0.6249 BATH TO 0.0000
-0.1556 BEAUTIFUL </s> 3.2626
-0.1556 BEFORE YOU -0.4445
-0.4566 BEGIN TALKING 0.0668
-0.1336 BLUE TRAIN 0.0000
-0.3268 BOSTON </s> 1.7258
-1.3181 BOSTON AND -0.1463
-2.1726 BOSTON FROM 0.0000
-1.9745 BOSTON GO -0.1484
-1.7653 BOSTON SHOULD -0.1181
-1.3638 BOSTON THROUGH -0.4577
-0.6948 BOSTON TO -0.4068
-1.9745 BOSTON TRAIN -0.4439
-1.0393 BOSTON VIA -0.1220
-0.2254 BRING IT -0.1159
-0.6327 BRING THE 0.0809
-0.3157 BUFFALO </s> 1.4740
-0.9055 BUFFALO AND -0.6801
-1.9729 BUFFALO BUFFALO -0.2913
-2.4133 BUFFALO CHARLOTTE -0.4348
-1.9049 BUFFALO CLEVELAND -0.4256
-2.2152 BUFFALO DOWN 0.7535
-2.4133 BUFFALO FROM 0.0000
-2.4133 BUFFALO GO -0.3567
-2.4133 BUFFALO HUH 0.0000
-1.3283 BUFFALO INSTEAD 0.0088
-1.7136 BUFFALO PITTSBURGH -0.4643
-2.4133 BUFFALO PLEASE -0.1462
-1.9729 BUFFALO THEN -0.0190
-1.4795 BUFFALO THROUGH -0.2675
-0.7953 BUFFALO TO -0.4435
-2.4133 BUFFALO TORONTO 0.0000
-1.9049 BUFFALO VIA -0.1165
-0.3513 BURLINGTON </s> 1.9611
-1.5214 BURLINGTON AND -0.1007
-1.2041 BURLINGTON DOWN 0.3358
-1.5545 BURLINGTON INSTEAD 0.9383
-1.7637 BURLINGTON THROUGH -0.2266
-0.4840 BURLINGTON TO -0.3981
-1.0307 BUT DON'T -0.0671
-0.6234 BUT GO -0.2914
-1.0307 BUT LET'S 0.0000
-0.1556 BUTTON FOR -0.4284
-0.2041 BY WAY -0.6410
-0.4566 BYE </s> 3.2626
-0.4566 BYE BYE -0.2677
-0.1919 CAN WE -0.3548
-1.0007 CAN YOU 0.0000
-0.3317 CAN'T FIGURE 0.1226
-0.1556 CANADA TO 0.0000
-0.2304 CANANDAIGUA </s> 2.7170
-0.8869 CANANDAIGUA TO -0.2458
-0.8090 CANCEL </s> 2.0835
-2.0990 CANCEL CANCEL -0.1728
-0.2384 CANCEL THAT -1.1251
-0.7182 CANCEL THE -0.2094
-1.5974 CANCEL THIS -0.6854
-2.0990 CANCEL TRAIN -0.0977
-0.1556 CAN_I GET 0.0000
-0.6997 CAN_YOU TELL_ME 0.0000
-0.6997 CAN_YOU UNDERSTAND -0.1821
-0.3317 CARE </s> 3.2626
-0.4346 CHANGE </s> 3.2317
-0.6327 CHANGE THAT 0.0000
-0.1556 CHAR- </s> 3.2626
-0.1556 CHARL- TO -0.4461
-0.3826 CHARLESTON </s> 1.5771
-0.8890 CHARLESTON AND -0.3952
-2.1789 CHARLESTON CINCINNATI 0.0000
-2.3770 CHARLESTON COLUMBUS -0.4052
-1.9697 CHARLESTON GO -0.4776
-1.5224 CHARLESTON INSTEAD 0.4076
-2.3770 CHARLESTON NOR 0.0000
-1.9366 CHARLESTON PITTSBURGH -0.7090
-2.3770 CHARLESTON RICHMOND 0.0000
-2.3770 CHARLESTON TAKE -0.4272
-1.5682 CHARLESTON THEN -0.1099
-1.8686 CHARLESTON THROUGH -0.1017
-0.5879 CHARLESTON TO -0.4086
-2.1789 CHARLESTON TRAIN -0.4439
-2.3770 CHARLESTON UH 0.0000
-2.1789 CHARLESTON VIA 0.0000
-0.4093 CHARLOTTE </s> 1.6917
-1.3554 CHARLOTTE AND -0.1766
-2.0910 CHARLOTTE GO 0.0000
-1.3554 CHARLOTTE INSTEAD 0.3285
-1.8818 CHARLOTTE RALEIGH -0.1600
-2.2891 CHARLOTTE THEN -0.2953
-2.0910 CHARLOTTE THROUGH -0.2371
-0.4052 CHARLOTTE TO -0.5891
-1.5895 CHARLOTTE TRAIN -0.9434
-1.8818 CHARLOTTE UP -0.0898
-0.3317 CHICA- </s> 3.2626
-0.3510 CHICAGO </s> 1.6132
-1.1538 CHICAGO AND -0.2060
-2.3094 CHICAGO DIRECTLY -0.2187
-2.1113 CHICAGO DOWN 0.7535
-1.9021 CHICAGO GO -0.4894
-2.3094 CHICAGO INDIANAPOLIS -0.4251
-1.9021 CHICAGO INSTEAD 0.2011
-1.9021 CHICAGO PITTSBURGH -0.5180
-1.8010 CHICAGO THEN -0.1490
-1.9021 CHICAGO THROUGH -0.1558
-0.5518 CHICAGO TO -0.5403
-2.1113 CHICAGO TOLEDO -0.2342
-1.8010 CHICAGO TRAIN -0.2628
-1.3087 CHICAGO VIA -0.1817
-0.1556 CINCINNA- </s> 3.2626
-0.4231 CINCINNATI </s> 1.6601
-1.0821 CINCINNATI AND -0.3500
-1.9273 CINCINNATI CHARLESTON -0.5271
-2.3346 CINCINNATI COLUMBUS 0.0000
-2.3346 CINCINNATI DIRECTLY -0.2187
-2.3346 CINCINNATI FIRST -0.0742
-2.3346 CINCINNATI GO 0.0000
-1.1790 CINCINNATI INSTEAD 0.0917
-1.5769 CINCINNATI THEN -0.0620
-1.8262 CINCINNATI THROUGH -0.1017
-0.5506 CINCINNATI TO -0.6375
-1.6349 CINCINNATI TRAIN -0.8036
-1.8942 CINCINNATI UP -0.2808
-1.8262 CINCINNATI VIA -0.0954
-0.3757 CITY </s> 2.8139
-1.1333 CITY AND 0.0000
-1.1333 CITY COLUMBUS 0.0000
-0.0493 CLEAR THE -0.1531
-0.3757 CLEVELAND </s> 1.5835
-1.0178 CLEVELAND AND -0.2977
-2.1657 CLEVELAND AS -0.2000
-2.3638 CLEVELAND BUFFALO -0.3786
-2.1657 CLEVELAND GO -0.1484
-1.5550 CLEVELAND INSTEAD 0.4534
-2.3638 CLEVELAND OR -0.4088
-2.3638 CLEVELAND OVER -0.3156
-2.1657 CLEVELAND PLEASE -0.1771
-2.1657 CLEVELAND THEN -0.4775
-1.6641 CLEVELAND THROUGH -0.2208
-0.4839 CLEVELAND TO -0.5797
-2.1657 CLEVELAND TOLEDO -0.2404
-1.8554 CLEVELAND VIA -0.0981
-2.3638 CLEVELAND WASHINGTON -0.4342
-0.5027 COLUMBUS </s> 1.7725
-0.9700 COLUMBUS AND -0.6025
-1.8944 COLUMBUS CINCINNATI -0.2676
-2.3017 COLUMBUS CLEVELAND -0.4106
-2.3017 COLUMBUS DETROIT -0.4159
-2.3017 COLUMBUS DOWN 0.7844
-1.2167 COLUMBUS INSTEAD 0.1772
-1.8614 COLUMBUS PITTSBURGH -0.2268
-2.3017 COLUMBUS SEND -0.3865
-2.3017 COLUMBUS SHOULD -0.4242
-1.8614 COLUMBUS THEN -0.1714
-1.7933 COLUMBUS THROUGH -0.2536
-0.5441 COLUMBUS TO -0.5538
-1.5441 COLUMBUS TOLEDO -0.3128
-1.4929 COLUMBUS TRAIN -0.9128
-2.3017 COLUMBUS UH 0.0000
-2.3017 COLUMBUS VIA 0.0000
-0.1556 COMMAND </s> 3.2626
-0.1556 CONDITIONS IN 0.0000
-0.6922 CONTINUE FROM -0.1395
-0.8519 CONTINUE ON -0.1979
-1.4627 CONTINUE THE -0.2288
-1.2535 CONTINUE THROUGH -0.1558
-0.2877 CONTINUE TO -0.1149
-0.3317 COULD YOU 0.0000
-0.2585 CURRENTLY AT -0.2230
-0.1549 DANSVILLE TO -0.1991
-0.0792 DESTINATION </s> 2.7170
-0.0512 DESTINATIONS </s> 2.8139
-0.3632 DETROIT </s> 1.5617
-2.3731 DETROIT AGAIN 0.0738
-1.0714 DETROIT AND -0.3506
-2.1750 DETROIT CLEVELAND -0.4415
-2.3731 DETROIT DOWN 0.7844
-1.9658 DETROIT FROM -0.2815
-2.1750 DETROIT GO -0.1484
-1.6154 DETROIT INSTEAD 0.3362
-1.9658 DETROIT THEN -0.2984
-1.8647 DETROIT THROUGH -0.1061
-0.5185 DETROIT TO -0.7580
-1.9658 DETROIT TOLEDO -0.2933
-2.1750 DETROIT TORONTO -0.2149
-1.6154 DETROIT TRAIN -1.0014
-2.1750 DETROIT VIA -0.2137
-0.6997 DID </s> 3.2626
-0.6997 DID YOU 0.0000
-0.1336 DIDN'T WANT 0.0000
-0.1556 DIFFERENT ROUTE -0.2439
-0.3317 DIRECT ROUTE -0.2439
-1.7238 DIRECTLY </s> 3.2626
-0.2894 DIRECTLY FROM -0.2580
-1.5257 DIRECTLY THROUGH 0.0000
-0.3779 DIRECTLY TO -0.2929
-1.4489 DO I -0.2428
-1.4489 DO IT 0.0000
-1.6470 DO I_NEED 1.0597
-0.4702 DO NOT -0.3265
-1.6470 DO NOW -0.4311
-0.3945 DO THAT -0.3005
-1.6470 DO THE 0.0000
-0.5535 DOES IT -0.4513
-0.1556 DOING </s> 3.2626
-1.9189 DON'T CARE 0.0263
-0.9200 DON'T DO -1.1182
-0.2290 DON'T GO -1.0122
-1.7097 DON'T SEND -0.2372
-1.6086 DON'T TAKE 0.4116
-1.2625 DON'T USE -0.1546
-0.9614 DON'T WANT -0.4878
-1.9189 DON'T WORRY 0.0917
-2.4072 DONE <UNK> 0.0000
-0.0276 DONE </s> 1.1920
-2.4072 DONE AND 0.0000
-2.4072 DONE FOR 0.0000
-1.6496 DONE NOW -0.8798
-2.2091 DONE THANK 0.6286
-1.5706 DOWN THE -0.4541
-0.0258 DOWN TO -0.4292
-0.3317 DREW FROM -0.4388
-0.1336 DRIVE THE 0.0500
-0.1091 EAST_AURORA </s> 2.5709
-0.9117 EAST_AURORA TO 0.0000
-0.0493 EITHER </s> 3.1299
-0.2585 ELSE DO -0.2362
-0.4566 END THE -0.4539
-0.3010 ENGINE AT -0.2642
-0.6021 ENGINE FROM -0.1532
-0.9445 ENGINE IN -0.2058
-1.7991 ENGINE THAT -0.4481
-1.2907 ENGINE TO 0.0000
-0.6930 ERASE THAT -0.2643
-0.2788 ERASE THE -0.4139
-0.1556 ERROR GOT 0.0000
-0.3684 EXCELLENT </s> 2.9389
-0.6107 EXCELLENT I'M 0.5431
-0.1336 FIGURE IT -0.2429
-1.3317 FINALLY I 0.0000
-0.6320 FINALLY I_WANT 0.4516
-0.3979 FINALLY LET'S -0.3728
-1.3317 FINALLY TAKE 0.3476
-0.3554 FIND A -0.2241
-0.5535 FIND THE 0.0000
-0.2711 FINE </s> 2.5409
-0.4929 FINE I'M 0.0742
-0.0555 FINISHED </s> 2.3746
-1.2525 FINISHED THANK 0.6595
-0.2341 FIRST </s> 2.8719
-1.2348 FOR A -0.4466
-1.2348 FOR EXAMPLE 0.0000
-0.3010 FOR THE -0.2428
-1.0367 FOR THIS -0.1464
-1.7411 FORGET </s> 3.2626
-1.3338 FORGET ABOUT 0.0000
-0.3550 FORGET IT -0.8249
-0.5063 FORGET THAT -0.6622
-1.3338 FORGET THE 0.3650
-1.5430 FORGET THIS -0.3256
-0.0580 FRANKLINVILLE </s> 2.8719
-2.3224 FROM <UNK> -0.1658
-2.9332 FROM </s> 3.2317
-1.2990 FROM ALBANY -0.4169
-1.2944 FROM ATLANTA -0.8568
-3.1313 FROM AVON 0.0000
-1.6746 FROM BALTIMORE -0.2730
-2.6909 FROM BATH -0.1784
-1.5865 FROM BOSTON -0.2564
-1.5691 FROM BUFFALO -0.7243
-1.6746 FROM BURLINGTON -0.9001
-2.9332 FROM CANANDAIGUA -0.1857
-1.4506 FROM CHARLESTON -0.7850
-1.2990 FROM CHARLOTTE -0.4977
-1.4194 FROM CHICAGO -0.8143
-1.4638 FROM CINCINNATI -0.7799
-1.2767 FROM CLEVELAND -0.8197
-1.5607 FROM COLUMBUS -0.7573
-2.3736 FROM DANSVILLE -0.0792
-1.3082 FROM DETROIT -1.2010
-3.1313 FROM HORNELL -0.3577
-1.7326 FROM INDIANAPOLIS -0.6332
-1.4705 FROM LEXINGTON -0.2927
-2.6229 FROM LYONS -0.3263
-1.4194 FROM MILWAUKEE -0.4875
-1.3036 FROM MONTREAL -0.2512
-3.1313 FROM MOUNT_MORRIS 0.0000
-1.4194 FROM NEW_YORK -0.4160
-2.2353 FROM PENN_YAN -0.3340
-1.5285 FROM PHILADELPHIA -0.4134
-1.5777 FROM PITTSBURGH -1.1033
-1.4914 FROM RALEIGH -0.5008
-1.4506 FROM RICHMOND -0.8385
-1.3273 FROM SCRANTON -0.3669
-3.1313 FROM SODUS -0.1821
-1.4506 FROM SYRACUSE -0.4583
-2.9332 FROM THE 0.0000
-2.9332 FROM THERE 0.0000
-1.5865 FROM TOLEDO -0.7518
-1.4506 FROM TORONTO -0.3995
-2.3736 FROM UH -0.0695
-2.2353 FROM WARSAW -0.5237
-1.6856 FROM WASHINGTON -0.8233
-2.9332 FROM WATKINS_GLEN -0.1579
-0.1383 GENEVA </s> 2.8139
-1.8716 GET <UNK> 0.0000
-1.1139 GET A -0.4881
-1.1719 GET FROM 0.0000
-1.8716 GET ONE -0.4159
-1.3632 GET RID 0.2918
-1.4312 GET THE -0.2428
-0.1782 GET TO -0.1970
-1.4643 GET TRAINS -0.5090
-0.3317 GIVE UP 0.0000
-2.1729 GO </s> 2.6756
-2.8708 GO ANY -0.2863
-1.9590 GO BACK -0.6269
-1.5067 GO DIRECTLY -0.4380
-0.3921 GO FROM -0.0007
-3.0689 GO NOW -0.4414
-1.7672 GO ON -0.2023
-2.6616 GO SOUTH -0.1408
-3.0689 GO STRAIGHT 0.0000
-3.0689 GO TAKE 0.3476
-3.0689 GO THAT 0.0000
-3.0689 GO THERE 0.0227
-0.6958 GO THROUGH -0.1224
-0.6520 GO TO -0.6306
-3.0689 GO UH 0.0000
-2.3692 GO UP -0.0467
-1.1244 GO VIA 0.1676
-2.8708 GO WEST 0.0000
-0.0792 GOAL </s> 2.7170
-0.9338 GOAL IS 0.0000
-0.1461 GOALS </s> 2.7170
-0.8026 GOALS ARE 0.0000
-0.1243 GOES TO -0.2085
-1.3597 GOING </s> 3.2626
-0.8513 GOING FROM -0.1069
-0.4638 GOING THROUGH -0.0463
-0.5051 GOING TO 0.0000
-1.3597 GOING VIA 0.0000
-0.3741 GOOD </s> 2.2399
-1.7058 GOOD GOOD 0.0000
-1.5077 GOOD I 0.0000
-1.2985 GOOD I'M 0.4413
-1.5077 GOOD JOB 0.0917
-1.1974 GOOD LET'S -0.0010
-0.7721 GOOD NOW 0.0026
-1.7058 GOOD TAKE 0.3476
-1.7058 GOOD UH 0.0000
-0.4566 GOT AN -0.3577
-0.9082 GREAT </s> 2.3948
-2.0850 GREAT I 0.0000
-0.4981 GREAT I'M -0.7039
-2.0850 GREAT JUST 0.0000
-0.8687 GREAT LET'S -0.0644
-0.4981 GREAT NOW -0.3104
-1.8869 GREAT OKAY -0.1889
-1.8869 GREAT UH -0.2332
-1.0007 HAVE A -0.0395
-0.3010 HAVE THE -0.3098
-0.4923 HAVE TO -0.3531
-0.1924 HELLO </s> 2.9389
-0.4566 HERE </s> 3.2626
-0.6565 HI </s> 3.2317
-0.8546 HI I_NEED 1.0597
-0.6565 HI I_WANT 0.8113
-0.3317 HOLD DOWN -0.4426
-0.6997 HORNELL </s> 3.2626
-0.6997 HORNELL OKAY -0.4369
-0.6997 HORNELL TO 0.0000
-1.2525 HOW ABOUT 0.0000
-1.2525 HOW ARE 0.0000
-1.0544 HOW DO -0.4696
-0.8121 HOW LONG 0.2263
-0.4437 HOW MANY 0.0000
-0.5612 HOW_ABOUT FROM 0.0000
-0.9685 HOW_ABOUT GOING 0.0000
-0.9685 HOW_ABOUT IF -0.2255
-0.4566 HUH </s> 3.2626
-1.4314 I <UNK> 0.0955
-0.8141 I ALSO -0.5862
-1.2765 I AM -0.4412
-2.1310 I BELIEVE 0.0000
-2.1310 I CAN'T -0.1821
-1.9329 I DIDN'T 0.0917
-1.6907 I DO -0.3436
-0.8615 I DON'T -0.6615
-2.1310 I GET 0.0000
-1.7237 I HAVE -0.1364
-1.9329 I NEED 0.8571
-1.2351 I SAID 0.0045
-1.9329 I SEE 0.0000
-2.1310 I SUPPOSED 0.0668
-1.2351 I THINK -0.1663
-1.0212 I WANT -0.6608
-1.6907 I WANTED 0.0966
-1.3222 I WANT_TO 0.1540
-1.0723 I WOULD -0.4260
-0.0395 I'D LIKE -0.4260
-1.8660 I'M <UNK> 0.0540
-0.0427 I'M DONE -0.2366
-1.5656 I'M FINISHED -0.0334
-2.3744 I'M HERE -0.2677
-2.3744 I'M READY 0.0000
-2.3744 I'M SAYING 0.0000
-2.3744 I'M SORRY -0.3323
-0.6979 IF I 0.0000
-0.3876 IF WE -0.0935
-0.1556 IGNORE THAT 0.0000
-2.0830 IN <UNK> 0.0000
-1.0463 IN ALBANY -0.1172
-1.2504 IN ATLANTA 0.3142
-1.7727 IN BALTIMORE 0.0610
-1.3126 IN BOSTON 0.0805
-1.8738 IN BUFFALO -0.0063
-2.2811 IN BURLINGTON 0.0000
-1.1961 IN CHARLOTTE 0.1306
-1.4265 IN CHICAGO -0.2062
-1.7727 IN CINCINNATI -0.0055
-1.1961 IN CLEVELAND -0.0493
-1.7727 IN COLUMBUS 0.0000
-1.5234 IN DETROIT 0.2485
-1.4723 IN INDIANAPOLIS -0.5958
-1.1043 IN MILWAUKEE -0.3144
-1.3851 IN MONTREAL -0.1492
-1.3851 IN NEW_YORK -0.0104
-1.8738 IN PENN_YAN -0.1196
-1.4265 IN PHILADELPHIA -0.1916
-1.4723 IN PITTSBURGH 0.1500
-2.0830 IN RALEIGH 0.0000
-1.8738 IN RICHMOND -0.1626
-1.3851 IN SCRANTON -0.2694
-1.5234 IN SYRACUSE -0.0232
-1.7727 IN TOLEDO 0.0846
-1.4265 IN TORONTO 0.0598
-1.5234 IN WARSAW 0.1928
-1.7727 IN WASHINGTON 0.1420
-0.3392 INDIANAPOLIS </s> 1.7258
-1.1843 INDIANAPOLIS AND -0.1134
-1.7777 INDIANAPOLIS GO -0.0726
-1.2512 INDIANAPOLIS INSTEAD 0.3285
-2.1850 INDIANAPOLIS PLEASE -0.1462
-2.1850 INDIANAPOLIS SHOULD 0.0146
-1.7446 INDIANAPOLIS THROUGH -0.1494
-0.6061 INDIANAPOLIS TO -0.5133
-1.9869 INDIANAPOLIS TRAIN -0.2046
-2.1850 INDIANAPOLIS VIA 0.0000
-0.1622 INSTEAD </s> 1.4866
-2.0492 INSTEAD GO 0.0000
-0.5666 INSTEAD OF -0.1836
-2.0492 INSTEAD TAKE 0.5560
-1.6934 IS <UNK> 0.0000
-1.2531 IS </s> 2.9389
-1.4953 IS AT -0.4723
-1.4953 IS GOOD -0.0076
-1.1850 IS IN -0.1122
-1.2861 IS NOT -0.1599
-1.6934 IS THAT 0.0000
-0.6084 IS THE 0.1069
-1.2861 IS THIS 0.0000
-1.6934 IS TOLEDO -0.2394
-0.1091 IS_THERE A -0.4301
-0.8088 IS_THERE AN -0.3577
-0.7012 IT </s> 2.1372
-2.1356 IT BACK -0.3032
-2.1356 IT DO 0.0000
-1.9375 IT FROM 0.0000
-1.7283 IT LET'S 0.0310
-2.1356 IT OUT 0.0000
-2.1356 IT RIGHT 0.0000
-2.1356 IT TAKE -0.4522
-1.4359 IT THROUGH -0.0731
-0.2724 IT TO -0.1316
-2.1356 IT UH -0.4021
-2.1356 IT UNTIL 0.0668
-1.9375 IT VIA -0.2164
-2.1356 IT WAS 0.0000
-1.6477 I_NEED A 0.1689
-0.0135 I_NEED TO -1.9288
-1.6428 I_WANT THE 0.1449
-0.0225 I_WANT TO -1.4890
-2.1512 I_WANT YOU -0.4287
-0.3554 I_WOULD LIKE 0.7119
-0.5535 JAMESTOWN </s> 3.2626
-0.5535 JAMESTOWN FROM 0.0000
-0.1336 JOB </s> 3.2317
-0.9338 JUST <UNK> 0.0000
-0.9338 JUST GO -0.3450
-1.1750 LAST <UNK> -0.3008
-1.1750 LAST CHANGE -0.2863
-1.3731 LAST COMMAND 0.0668
-1.1750 LAST MOVE -0.4825
-0.9658 LAST PART 0.0668
-1.3731 LAST PLAN -0.3364
-0.9658 LAST ROUTE -0.0946
-1.1750 LAST SEGMENT 0.4837
-0.8647 LAST TRAIN -0.4176
-1.3731 LAST TRIP -0.3462
-0.7577 LEAVE THAT -0.4137
-0.5596 LEAVE THE 0.2892
-0.4566 LET ME 0.0000
-2.3691 LET'S <UNK> 0.0000
-2.5672 LET'S BEGIN 0.0000
-2.5672 LET'S FORGET -0.4418
-0.2686 LET'S GO -0.2770
-2.5672 LET'S JUST 0.0000
-1.8676 LET'S MOVE 0.0181
-2.5672 LET'S NOT 0.0000
-2.5672 LET'S QUIT 0.6917
-2.1599 LET'S SEE -0.1113
-1.3324 LET'S SEND -0.9286
-1.3324 LET'S START -0.1852
-0.5888 LET'S TAKE -0.6481
-1.8676 LET'S TALK 0.1091
-1.8096 LET'S TRY 0.0511
-2.3691 LET'S UH -0.2387
-1.8676 LET'S USE -0.5283
-0.3317 LEXI- </s> 3.2626
-0.0493 LEXING- </s> 3.1299
-2.3770 LEXINGTON <UNK> -0.2699
-0.3103 LEXINGTON </s> 1.5048
-1.4085 LEXINGTON AND -0.1040
-2.1789 LEXINGTON BY -0.0594
-2.3770 LEXINGTON FROM 0.0000
-1.9697 LEXINGTON GO -0.0726
-1.9697 LEXINGTON INDIANAPOLIS -0.2757
-1.9366 LEXINGTON INSTEAD -0.2719
-2.3770 LEXINGTON THEN 0.0000
-1.0311 LEXINGTON THROUGH -0.2497
-0.7666 LEXINGTON TO -0.2249
-0.9910 LEXINGTON VIA -0.2188
-0.0285 LIKE TO -1.0231
-0.2254 LONG DOES -0.0279
-0.6327 LONG IS -0.3316
-0.2254 LOOKS GOOD 0.0000
-0.1924 LYON </s> 2.9389
-0.3010 LYONS </s> 2.6031
-0.8623 LYONS TO -0.4532
-0.0512 MANY TRAINS -1.0015
-0.8546 ME <UNK> 0.0000
-0.4473 ME </s> 3.1299
-0.1556 MILWAU- </s> 3.2626
-0.3739 MILWAUKEE </s> 1.6563
-1.1558 MILWAUKEE AND -0.1504
-2.0910 MILWAUKEE CHARLESTON -0.4253
-2.2891 MILWAUKEE DOWN 0.7844
-2.0910 MILWAUKEE GO 0.0000
-2.2891 MILWAUKEE IS 0.0000
-1.8488 MILWAUKEE SHOULD -0.0341
-2.2891 MILWAUKEE SYRACUSE 0.0000
-2.2891 MILWAUKEE THEN 0.0000
-1.3206 MILWAUKEE THROUGH -0.4019
-0.5712 MILWAUKEE TO -0.5238
-1.3932 MILWAUKEE TRAIN -0.4307
-1.4803 MILWAUKEE VIA -0.1423
-0.3684 MIND </s> 2.9389
-0.8088 MIND LET'S 0.0000
-0.1556 MINUTE </s> 3.2626
-0.1556 MOMENT BEFORE 0.0668
-0.3921 MONTREAL </s> 1.6958
-1.8275 MONTREAL AND -0.0908
-1.8275 MONTREAL DOWN 0.4607
-2.0698 MONTREAL INSTEAD 0.2601
-1.2672 MONTREAL THROUGH -0.1656
-0.4448 MONTREAL TO -0.6599
-1.5102 MONTREAL TRAIN -0.6169
-1.4591 MONTREAL VIA -0.0989
-0.6997 MOUNT_MORRIS TO 0.0000
-2.1918 MOVE </s> 3.2317
-1.9495 MOVE A -0.3632
-0.9225 MOVE FROM -0.2671
-1.6322 MOVE IT -0.5714
-2.3899 MOVE MOVE 0.0000
-2.1918 MOVE NEW_YORK -0.3232
-1.8815 MOVE ONE -0.1604
-2.3899 MOVE PHILADELPHIA -0.3119
-0.1391 MOVE THE -0.7064
-2.3899 MOVE THROUGH -0.4414
-1.8815 MOVE TO -0.1200
-1.6902 MOVE TRAIN -0.4574
-0.3462 MY <UNK> -0.0400
-0.8546 MY OTHER 0.0000
-0.8546 MY VOICE 0.0668
-0.0202 NEED TO -0.8389
-0.1556 NEEDED TO 0.0000
-0.0493 NEEDS TO -0.2678
-0.0969 NEVER MIND -0.2917
-0.8546 NEVER PASS -0.1821
-0.1336 NEW YORK 0.0263
-0.3917 NEW_YORK </s> 1.6678
-1.1856 NEW_YORK AND -0.2664
-1.4409 NEW_YORK CITY -0.4726
-2.2955 NEW_YORK DOWN 0.7844
-2.0974 NEW_YORK GO 0.0000
-1.5378 NEW_YORK INSTEAD -0.3969
-2.2955 NEW_YORK OVER -0.3156
-2.0974 NEW_YORK PHILADELPHIA -0.2146
-2.2955 NEW_YORK SEND 0.0000
-2.2955 NEW_YORK THEN 0.0000
-1.7871 NEW_YORK THROUGH -0.1003
-0.5064 NEW_YORK TO -0.6320
-1.5958 NEW_YORK TRAIN -0.4955
-2.2955 NEW_YORK UH 0.0000
-1.8551 NEW_YORK VIA -0.1335
-2.0417 NO <UNK> 0.0000
-0.8020 NO </s> 1.9246
-1.2327 NO CANCEL -0.2940
-1.0146 NO DON'T -0.5645
-2.4490 NO ERASE -0.3560
-1.6913 NO FORGET 0.1841
-2.0417 NO FROM 0.0000
-0.6701 NO GO -0.2540
-1.4804 NO I -0.3583
-2.4490 NO I'D 0.6063
-2.2509 NO I'M 0.0000
-2.4490 NO INSTEAD -0.4505
-1.1794 NO I_WANT 0.1781
-1.1030 NO LET'S -0.0979
-1.2934 NO NO -0.0056
-1.9406 NO NOT -0.1201
-1.5530 NO SEND 0.1814
-2.2509 NO START 0.2499
-1.5152 NO STAY 0.2715
-1.6402 NO TAKE -0.2320
-2.0086 NO UH -0.3268
-2.4490 NO USE -0.1376
-2.4490 NO YOU -0.4217
-0.3317 NORTH TO 0.0000
-1.4273 NOT <UNK> -0.0615
-1.6254 NOT </s> 3.2626
-1.6254 NOT BOSTON 0.0000
-1.6254 NOT BURLINGTON 0.0000
-0.7709 NOT GO -0.1202
-1.6254 NOT OKAY 0.0000
-1.6254 NOT RELEASE 0.0668
-1.2181 NOT TAKE 0.4969
-1.1170 NOT TO 0.0000
-1.4273 NOT USE 0.0000
-1.2181 NOT WANT 0.2647
-1.6254 NOT WHAT 0.0000
-1.6254 NOT WITH -0.4147
-1.2817 NOW </s> 2.3553
-1.4973 NOW CONTINUE 0.3126
-1.5295 NOW FROM -0.1027
-0.7090 NOW GO -0.1896
-1.6435 NOW I -0.2021
-1.7984 NOW I_NEED 0.6690
-1.0872 NOW I_WANT -0.2596
-0.8046 NOW LET'S -0.6703
-1.1963 NOW MOVE 0.1055
-2.0907 NOW ON 0.2636
-2.0577 NOW PROCEED 0.2274
-1.5295 NOW SEND -0.1997
-0.6941 NOW TAKE -0.3409
-2.0577 NOW THE -0.2428
-2.0577 NOW TO 0.0000
-2.4980 NOW UP 0.0429
-2.4980 NOW WE 0.0000
-2.4980 NOW WE'RE -0.4107
-2.4980 NOW WHAT 0.0000
-2.0907 NOW WHERE -0.1633
-1.4063 OF <UNK> 0.0142
-1.8136 OF AVON -0.0645
-1.4063 OF BUFFALO -0.3003
-1.4063 OF CHARLESTON -0.1103
-1.6155 OF CHARLOTTE -0.2709
-1.4063 OF CHICAGO -0.0489
-1.0560 OF CINCINNATI -0.6972
-1.3732 OF COLUMBUS -0.6143
-1.6155 OF DETROIT 0.0006
-1.4063 OF GOING 0.0093
-1.3732 OF LEXINGTON -0.0040
-1.6155 OF NEW_YORK -0.2593
-1.0560 OF PITTSBURGH -0.6152
-1.0560 OF SCRANTON -0.7248
-1.8136 OF THAT -0.4302
-1.3052 OF THE 0.0000
-1.8136 OF THROUGH 0.0000
-1.8136 OF TOLEDO -0.2394
-1.4063 OF TORONTO -0.3693
-0.8088 OF_THE OTHER -0.4234
-0.6107 OF_THE TRAINS -0.2338
-0.8546 OH NO 0.0000
-2.5116 OKAY <UNK> 0.0000
-1.4018 OKAY </s> 2.4617
-1.5431 OKAY AND -0.2806
-2.0032 OKAY BUT -0.1065
-2.5116 OKAY CANCEL -0.3622
-2.0713 OKAY DON'T -0.3908
-2.0032 OKAY FINALLY 0.0914
-1.6157 OKAY FORGET -0.7884
-2.3135 OKAY FROM 0.0000
-1.1519 OKAY GO 0.3909
-1.4529 OKAY I -0.0235
-1.4529 OKAY I'D -0.1434
-1.1519 OKAY I'M 0.0004
-1.1947 OKAY I_NEED 0.0517
-1.3783 OKAY I_WANT 0.0179
-0.6442 OKAY LET'S -0.4223
-2.0713 OKAY MOVE -0.2160
-2.5116 OKAY NO 0.0000
-0.9089 OKAY NOW -0.3177
-1.7540 OKAY SEND -0.3291
-2.1043 OKAY SO -0.3372
-1.4018 OKAY TAKE -0.4532
-2.0032 OKAY THAT'S 0.0000
-2.0713 OKAY THE -0.2428
-1.7540 OKAY THEN -0.2970
-2.1043 OKAY UH 0.0000
-2.3135 OKAY WE'RE 0.0000
-2.5116 OKAY WELL -0.3498
-1.5486 ON FROM 0.0000
-1.5486 ON THE 0.0000
-1.7467 ON THROUGH 0.0000
-0.0660 ON TO -0.1586
-1.2695 ONE </s> 3.2626
-1.0714 ONE FROM 0.0000
-1.0714 ONE IN 0.0000
-1.2695 ONE OF -0.4324
-0.8623 ONE OF_THE -0.2323
-1.2695 ONE TO 0.0000
-1.0714 ONE TRAIN -0.4439
-1.0007 OR BUFFALO -0.1676
-1.0007 OR COLUMBUS -0.2906
-1.3597 OTHER CITIES 0.0000
-0.5509 OTHER DESTINATION -0.1761
-1.1616 OTHER DESTINATIONS 0.4689
-1.1616 OTHER GOAL 0.2928
-0.6601 OTHER TRAIN -0.8327
-1.1616 OTHER TRAINS 0.1201
-0.3554 OUR GOAL 0.2928
-0.5535 OUR GOALS 0.0000
-0.4726 OVER </s> 2.2119
-1.6342 OVER AGAIN -0.4483
-0.6767 OVER AT -0.3861
-1.4250 OVER FROM 0.0000
-1.3919 OVER IN -0.1372
-0.5628 OVER TO -0.1325
-1.6342 OVER WITH -0.1024
-0.4566 PART </s> 3.2626
-0.4566 PART OF 0.0000
-0.3317 PASS THE -0.4541
-0.3317 PATH TO 0.0000
-0.1336 PENNSYLVANIA TO -0.4734
-0.9575 PENN_YAN </s> 3.2317
-0.9575 PENN_YAN AND -0.1761
-1.1556 PENN_YAN TAKE -0.4272
-0.3979 PENN_YAN TO -0.4744
-1.1556 PENN_YAN UP 0.0429
-0.3442 PHILADELPHIA </s> 1.6756
-1.1552 PHILADELPHIA AND -0.2592
-2.2402 PHILADELPHIA FROM 0.0000
-1.5405 PHILADELPHIA INSTEAD 0.8521
-2.2402 PHILADELPHIA SHOULD 0.0146
-2.0421 PHILADELPHIA THROUGH 0.0000
-0.5531 PHILADELPHIA TO -0.4677
-1.8329 PHILADELPHIA TRAIN -0.2636
-1.4314 PHILADELPHIA UP -0.4569
-1.4314 PHILADELPHIA VIA -0.4765
-0.3317 PHILLY </s> 3.2626
-0.4566 PI- PI- 0.0000
-0.3146 PITTSBURGH </s> 1.5183
-0.8320 PITTSBURGH AND -0.3552
-2.1697 PITTSBURGH BUFFALO -0.1884
-1.8594 PITTSBURGH CHARLESTON -0.3304
-2.3678 PITTSBURGH CHICAGO -0.4228
-2.1697 PITTSBURGH COLUMBUS -0.1968
-1.9605 PITTSBURGH DETROIT -0.5486
-1.9274 PITTSBURGH GO -0.6687
-1.9274 PITTSBURGH INSTEAD 0.9074
-2.3678 PITTSBURGH SCRANTON 0.0000
-1.9605 PITTSBURGH THEN 0.0000
-1.5590 PITTSBURGH THROUGH -0.4484
-0.7003 PITTSBURGH TO -0.2968
-2.3678 PITTSBURGH TRAIN -0.4130
-2.1697 PITTSBURGH VIA 0.0000
-0.4566 PLACE AFTER -0.1446
-0.6234 PLAN </s> 3.1299
-1.0307 PLAN AND 0.0000
-0.6234 PLAN FOR -0.2861
-0.1556 PLANE FROM 0.0000
-1.6399 PLEASE <UNK> -0.4490
-0.2940 PLEASE </s> 2.2256
-0.7439 PLEASE GO 0.0690
-1.6399 PLEASE PLAN 0.0000
-1.4418 PLEASE SEND -0.4773
-1.1315 PLEASE TAKE 0.4116
-0.0451 PROCEED TO -0.1205
-0.0493 PUT THE 0.3650
-0.0322 QUIT </s> 2.6031
-0.1556 RAL- </s> 3.2626
-2.3302 RALEIGH <UNK> 0.0000
-0.2910 RALEIGH </s> 1.5323
-1.0955 RALEIGH AND -0.3540
-1.8899 RALEIGH CLEVELAND -0.7343
-2.1321 RALEIGH DIRECTLY -0.0103
-2.1321 RALEIGH GO 0.0000
-2.1321 RALEIGH INSTEAD 0.0209
-2.1321 RALEIGH MILWAUKEE -0.4539
-2.3302 RALEIGH PLEASE -0.1462
-1.6306 RALEIGH RICHMOND -0.2548
-1.8899 RALEIGH THROUGH -0.0771
-0.6763 RALEIGH TO -0.5554
-2.3302 RALEIGH UH 0.0000
-1.5726 RALEIGH UP -0.3222
-1.5726 RALEIGH VIA -0.1325
-0.1556 RELEASE IT -0.4513
-0.4346 REROUTE THE 0.0500
-0.3358 RICHMOND </s> 1.5964
-1.3102 RICHMOND AND -0.3107
-2.3109 RICHMOND BALTIMORE -0.4494
-2.3109 RICHMOND CHARLESTON -0.4516
-1.3772 RICHMOND INSTEAD 0.1601
-2.3109 RICHMOND LEXINGTON -0.4371
-1.8025 RICHMOND RALEIGH -0.1882
-1.6113 RICHMOND THEN -0.2784
-1.8706 RICHMOND THROUGH -0.2063
-0.5533 RICHMOND TO -0.6143
-1.8706 RICHMOND TRAIN -0.7367
-2.3109 RICHMOND VIA 0.0000
-2.3109 RICHMOND WASHINGTON 0.0000
-0.2254 RID OF 0.0000
-0.6327 RID OF_THE 0.0000
-1.0714 RIGHT I'M 0.7824
-0.8623 RIGHT LET'S -0.0409
-0.5699 RIGHT NOW -0.0657
-0.4346 ROCHESTER </s> 3.2317
-0.6327 ROCHESTER AND -0.4536
-0.4155 ROUTE </s> 1.9536
-2.0335 ROUTE AND 0.0000
-1.2247 ROUTE FOR -0.7184
-0.6108 ROUTE FROM -0.1671
-1.6263 ROUTE IS 0.0000
-2.0335 ROUTE SHOULD 0.0146
-0.9485 ROUTE THE -0.4812
-2.0335 ROUTE THROUGH 0.0000
-1.8354 ROUTE TO -0.2300
-1.8354 ROUTE VIA -0.2014
-0.4566 ROUTES </s> 3.2626
-0.4566 ROUTES THAT -0.4514
-0.8960 SAID SEND 0.1196
-0.4727 SCRANTON </s> 1.7214
-2.3229 SCRANTON AGAIN 0.0738
-1.0704 SCRANTON AND -0.3001
-2.1248 SCRANTON BALTIMORE -0.2035
-2.1248 SCRANTON DOWN 0.7535
-1.4683 SCRANTON GO -0.2858
-1.3892 SCRANTON INSTEAD 0.3285
-2.3229 SCRANTON NEW_YORK -0.4252
-2.3229 SCRANTON OVER -0.3156
-2.1248 SCRANTON SCRANTON -0.2428
-1.8145 SCRANTON THEN -0.0654
-1.6232 SCRANTON THROUGH -0.2947
-0.4555 SCRANTON TO -0.6316
-2.1248 SCRANTON TRAIN -0.2046
-2.3229 SCRANTON UP 0.0429
-2.1248 SCRANTON VIA -0.2334
-0.1761 SCRATCH THAT -0.5800
-0.6234 SCRATCH THE -0.1669
-0.8960 SEE IT- 0.0000
-0.8960 SEE TAKE 0.3476
-0.0493 SEGMENT </s> 3.1299
-2.2950 SEND </s> 3.2317
-1.7354 SEND A -0.4881
-2.4931 SEND CHARLOTTE 0.0000
-0.8391 SEND IT -0.8418
-0.1347 SEND THE -0.5177
-2.4931 SEND TORONTO -0.2967
-1.1070 SEND TRAIN -1.1438
-0.4566 SH- CHARLESTON 0.0000
-0.0493 SHORTEST ROUTE -0.1830
-1.1716 SHOULD BE 0.0000
-0.1802 SHOULD GO -0.3037
-1.5788 SHOULD I -0.4455
-1.5788 SHOULD START -0.4208
-1.1716 SHOULD STAY 0.1399
-0.5016 SHOW_ME THE 0.0000
-0.5016 SHOW_ME WHERE 0.0000
-0.3317 SKIP ALBANY 0.0000
-1.0587 SO IF 0.0000
-0.3590 SO LET'S 0.3367
-0.3317 SODUS TO 0.0000
-0.6107 SORRY </s> 3.2317
-0.1924 SOUTH TO -0.7693
-0.1556 SPEECH BUTTON 0.0668
-0.1336 SPLENDID </s> 3.2317
-1.6296 START AGAIN 0.2822
-1.6296 START AT 0.0000
-1.1280 START FROM -0.1783
-1.1280 START IN -0.1345
-0.1669 START OVER -0.8454
-1.6296 START THE 0.0000
-1.8277 START THIS 0.0000
-1.8277 START WITH 0.0000
-0.1556 STARTED AT -0.4211
-0.2585 STARTING IN -0.4444
-0.9524 STAY AT 0.0000
-0.0902 STAY IN -0.1694
-0.5535 STILL THERE 0.0227
-1.0007 STOP </s> 3.2626
-0.5603 STOP AT -0.1534
-0.5934 STOP IN 0.0000
-0.4566 STRAIGHT FROM 0.0000
-0.1556 SUPPOSED TO 0.0000
-0.1556 SYRACU- </s> 3.2626
-0.3249 SYRACUSE </s> 1.4917
-2.2067 SYRACUSE ALBANY -0.2291
-0.9704 SYRACUSE AND -0.6810
-2.4048 SYRACUSE BALTIMORE -0.4119
-1.6471 SYRACUSE BUFFALO -0.1926
-2.4048 SYRACUSE DIRECTLY -0.2187
-2.4048 SYRACUSE DOWN 0.7844
-1.9975 SYRACUSE GO -0.0608
-1.4710 SYRACUSE INSTEAD 0.3135
-2.4048 SYRACUSE OVER -0.3156
-2.4048 SYRACUSE PITTSBURGH 0.0000
-2.2067 SYRACUSE SCRANTON -0.4467
-1.8964 SYRACUSE THEN -0.1281
-1.4710 SYRACUSE THROUGH -0.2241
-0.6752 SYRACUSE TO -0.4659
-1.6471 SYRACUSE VIA -0.1593
-0.5535 T- FROM 0.0000
-2.2868 TAKE </s> 3.1299
-1.6090 TAKE A -0.8155
-1.2162 TAKE IT -0.8145
-1.5173 TAKE THAT -0.8464
-0.0746 TAKE THE -0.7178
-2.4959 TAKE THIS -0.3856
-2.2868 TAKE TO 0.0000
-1.9364 TAKE TRAINS -0.8250
-2.6941 TAKE WASHINGTON -0.3856
-0.1336 TAKING THE 0.0500
-0.0512 TALK ABOUT -0.6435
-0.1556 TALKING AND -0.4536
-0.1556 TELL ME 0.0000
-0.5596 TELL_ME THE -0.2288
-0.3504 TELL_ME WHERE 0.0000
-0.1556 TEST </s> 3.2626
-0.0348 THANK YOU -0.9858
-0.5016 THANK_YOU </s> 3.2317
-0.5016 THANK_YOU I'M 0.7824
-1.8417 THAT <UNK> 0.0000
-0.2077 THAT </s> 1.4292
-2.1520 THAT ENGINE -0.2232
-2.3501 THAT GO 0.0000
-1.8417 THAT IS -0.1012
-1.2651 THAT LAST -0.1178
-1.9428 THAT LOOKS 0.2223
-2.3501 THAT ONE 0.0000
-2.3501 THAT PLAN -0.4120
-2.1520 THAT PLEASE -0.1771
-1.1531 THAT ROUTE -0.5299
-2.3501 THAT STARTED 0.0668
-1.0484 THAT TRAIN -0.4635
-2.3501 THAT UH 0.0000
-1.8417 THAT WAS 0.0000
-2.1520 THAT YOU -0.2362
-1.8799 THAT'S <UNK> 0.0000
-1.8799 THAT'S CURRENTLY -0.1063
-0.7031 THAT'S FINE -0.4771
-0.9839 THAT'S GOOD -0.5019
-0.6103 THAT'S GREAT -0.4963
-1.1802 THAT'S IN -0.0639
-0.5939 THAT'S OKAY -0.2550
-2.0695 THE <UNK> -0.1758
-2.6298 THE </s> 2.9389
-2.2156 THE ALBANY -0.9883
-2.3125 THE ATLANTA -0.8928
-2.8721 THE BEST 0.0000
-3.0702 THE BLUE 0.1226
-2.8721 THE BOSTON -0.4807
-2.8721 THE CHARLESTON -0.4825
-2.3705 THE CHARLOTTE -0.8338
-2.6298 THE CHICAGO -0.7712
-2.3705 THE CINCINNATI -0.8349
-2.8721 THE CITY 0.0000
-3.0702 THE CLEVELAND 0.0000
-2.3125 THE COLUMBUS -0.8889
-3.0702 THE CONDITIONS 0.0668
-3.0702 THE DELAY 0.0000
-2.5618 THE DESTINATIONS 0.5638
-2.2156 THE DETROIT -0.6883
-1.3348 THE ENGINE -0.5300
-2.8721 THE GAME 0.0000
-2.3125 THE GOALS -0.0580
-2.8721 THE INDIANAPOLIS -0.2416
-2.1017 THE LAST -0.1472
-3.0702 THE LEXINGTON 0.0000
-2.2614 THE MILWAUKEE -0.9363
-2.2614 THE MONTREAL -0.9406
-2.3125 THE NEW_YORK -0.8919
-2.2614 THE ONE -0.1778
-1.8539 THE OTHER -0.1452
-3.0702 THE PATH -0.1821
-2.6629 THE PHILADELPHIA -0.5807
-3.0702 THE PINK 0.0000
-3.0702 THE PITTSBURGH -0.4526
-2.5618 THE PLAN -0.2723
-3.0702 THE PLANE 0.0668
-2.3705 THE RICHMOND -0.8392
-1.4095 THE ROUTE -0.2359
-2.8721 THE SCRANTON -0.4821
-2.6629 THE SHORTEST 0.3819
-3.0702 THE SPEECH 0.0668
-3.0702 THE THE 0.0809
-2.6629 THE THIRD -0.0524
-3.0702 THE THREE 0.0000
-2.8721 THE TOLEDO -0.4801
-2.0695 THE TORONTO -0.8267
-2.8721 THE TR- 0.0000
-0.1497 THE TRAIN -0.3166
-1.5167 THE TRAINS -0.3297
-2.6629 THE TRIP -0.1562
-3.0702 THE TURING 0.0668
-2.6298 THE WASHINGTON -0.7727
-2.6629 THE WAY -0.4775
-3.0702 THE WHOLE 0.0000
-2.6629 THE YELLOW 0.0668
-1.8470 THEN </s> 3.1299
-2.2542 THEN AND 0.0000
-1.7458 THEN BUFFALO -0.1258
-1.7458 THEN CHARLESTON -0.1720
-1.8139 THEN CINCINNATI -0.3135
-1.8470 THEN CLEVELAND -0.2119
-1.8470 THEN COLUMBUS -0.2818
-2.0561 THEN CONTINUE 0.0000
-1.8470 THEN DETROIT 0.0764
-1.8470 THEN DIRECTLY -0.3514
-2.0561 THEN DOWN 0.7535
-1.8470 THEN FROM -0.1561
-1.0195 THEN GO -0.1368
-1.7458 THEN LET'S 0.3736
-2.2542 THEN LEXINGTON -0.1624
-0.9525 THEN ON -0.5965
-2.2542 THEN PITTSBURGH -0.4497
-2.0561 THEN SCRANTON -0.2393
-2.0561 THEN SEND 0.3280
-2.2542 THEN SOUTH -0.0081
-2.2542 THEN SYRACUSE 0.0000
-1.3205 THEN TAKE -0.0658
-1.4966 THEN THROUGH -0.0666
-0.5132 THEN TO -0.0823
-1.8139 THEN TOLEDO -0.7633
-2.2542 THEN TORONTO -0.2366
-1.5546 THEN UP -0.3478
-1.8470 THEN WASHINGTON -0.2206
-0.1761 THERE </s> 2.6378
-0.1556 THEY </s> 3.2626
-0.2218 THINK WE'RE -0.6339
-0.3554 THIRD TRAIN -0.4730
-1.0383 THIS IS 0.0000
-1.4456 THIS ONE 0.0000
-1.4456 THIS PLAN 0.0000
-0.5119 THIS ROUTE -0.3916
-0.6880 THIS TRAIN -0.0695
-1.4456 THIS TRIP 0.0000
-0.3317 THOUGH </s> 3.2626
-0.4566 THREE <UNK> -0.2699
-2.4627 THROUGH <UNK> -0.0615
-1.3590 THROUGH ALBANY -0.3149
-1.6601 THROUGH ATLANTA -0.7089
-2.4627 THROUGH AVON -0.2230
-1.6301 THROUGH BALTIMORE 0.1393
-2.1524 THROUGH BOSTON -0.1137
-1.1530 THROUGH BUFFALO -0.1063
-1.9031 THROUGH BURLINGTON -0.0522
-1.2747 THROUGH CHARLESTON -0.2945
-1.5274 THROUGH CHARLOTTE 0.3105
-1.5274 THROUGH CHICAGO 0.3278
-1.0819 THROUGH CINCINNATI -0.3087
-1.7270 THROUGH CLEVELAND -0.3460
-1.1934 THROUGH COLUMBUS -0.3765
-1.5051 THROUGH DETROIT -0.2507
-2.4627 THROUGH EAST_AURORA 0.4072
-2.6608 THROUGH GENEVA 0.0000
-1.4840 THROUGH INDIANAPOLIS 0.3577
-1.6601 THROUGH LEXINGTON 0.0528
-2.4627 THROUGH MONTREAL 0.0000
-1.3148 THROUGH NEW_YORK -0.4853
-1.4445 THROUGH PHILADELPHIA 0.1115
-1.1934 THROUGH PITTSBURGH -0.1453
-1.6922 THROUGH RALEIGH 0.2943
-1.7270 THROUGH RICHMOND -0.2929
-1.1727 THROUGH SCRANTON -0.3439
-1.2499 THROUGH SYRACUSE 0.0188
-2.6608 THROUGH THROUGH 0.0000
-1.2621 THROUGH TOLEDO -0.0523
-1.4840 THROUGH TORONTO 0.0432
-2.2204 THROUGH WASHINGTON 0.1884
-2.1457 TO <UNK> -0.1910
-2.4979 TO </s> 2.6378
-1.5051 TO ALBANY -0.3498
-1.4801 TO ATLANTA -0.6198
-2.6228 TO AVON -0.5643
-1.6632 TO BALTIMORE -0.0385
-2.7319 TO BATH -0.3067
-3.2335 TO BE 0.0000
-1.5240 TO BOSTON -0.5650
-1.4403 TO BUFFALO -0.2028
-1.8528 TO BURLINGTON -0.1891
-2.9912 TO CANANDAIGUA -0.3928
-3.4316 TO CHARL- 0.0668
-1.4732 TO CHARLESTON -0.0928
-1.7197 TO CHARLOTTE -0.1508
-3.4316 TO CHICA- -0.1821
-1.4664 TO CHICAGO -0.3034
-3.4316 TO CINCINNA- 0.0668
-1.6425 TO CINCINNATI 0.0220
-3.4316 TO CLE- 0.0000
-1.4907 TO CLEVELAND -0.1945
-1.6794 TO COLUMBUS -0.1639
-1.4732 TO DETROIT -0.2159
-2.9232 TO DO -0.1662
-2.5356 TO EAST_AURORA 0.1910
-3.0243 TO FRANKLINVILLE 0.3160
-2.9232 TO GENEVA 0.3397
-1.6180 TO GET -0.4178
-1.0843 TO GO -0.6318
-3.0243 TO HORNELL -0.2331
-1.6580 TO INDIANAPOLIS -0.2697
-3.0243 TO JAMESTOWN -0.0988
-3.2335 TO LEAVE 0.0000
-3.4316 TO LEXI- 0.0000
-3.2335 TO LEXING- 0.4837
-1.2804 TO LEXINGTON -0.2022
-2.9912 TO LYON -0.3318
-2.2983 TO LYONS -0.0746
-1.4801 TO MILWAUKEE -0.6959
-1.5201 TO MONTREAL -0.8066
-3.2335 TO MOUNT_MORRIS 0.0000
-2.9912 TO MOVE 0.3840
-3.4316 TO NEW 0.1226
-1.5684 TO NEW_YORK -0.1431
-3.4316 TO NO 0.0000
-3.4316 TO NOT -0.3738
-3.4316 TO OLEAN 0.0000
-3.2335 TO PENN_YAN -0.1953
-1.6228 TO PHILADELPHIA -0.5659
-3.4316 TO PHILLY -0.1821
-1.5163 TO PITTSBURGH -0.5099
-3.4316 TO RAL- 0.0668
-1.3895 TO RALEIGH -0.0939
-1.4664 TO RICHMOND -0.0105
-3.0243 TO ROCHESTER -0.1061
-1.6962 TO SCRANTON -0.0981
-2.7319 TO SEND -0.3934
-2.9912 TO START -0.1445
-3.4316 TO STAY 0.2726
-2.9232 TO STOP 0.0102
-3.4316 TO SYRACU- 0.0668
-1.4097 TO SYRACUSE -0.3893
-2.2548 TO TAKE -0.1860
-3.2335 TO THE 0.0000
-3.0243 TO TO -0.1555
-1.5436 TO TOLEDO -0.3649
-1.5684 TO TORONTO -0.4673
-3.0243 TO UH 0.0000
-3.4316 TO USE 0.0000
-3.4316 TO WA- 0.0668
-3.4316 TO WARSAW 0.0000
-3.4316 TO WASHING- -0.1821
-1.2826 TO WASHINGTON -0.1473
-3.0243 TO WASHINGTON_D_C 0.0430
-3.0243 TO WATKINS_GLEN -0.1369
-3.2335 TO YORKSHIRE 0.1021
-0.1336 TODAY </s> 3.2317
-0.4083 TOLEDO </s> 1.6525
-0.9956 TOLEDO AND -0.2817
-1.8870 TOLEDO CHICAGO -0.2644
-1.5697 TOLEDO CLEVELAND -1.0106
-1.5697 TOLEDO COLUMBUS -0.5317
-1.8189 TOLEDO DETROIT -0.1861
-2.1292 TOLEDO GO -0.1366
-1.3936 TOLEDO INSTEAD 0.1601
-2.3273 TOLEDO IS 0.0000
-1.4728 TOLEDO THEN -0.2860
-1.9200 TOLEDO THROUGH -0.5584
-0.6154 TOLEDO TO -0.5395
-1.9200 TOLEDO TRAIN -0.5456
-1.9200 TOLEDO VIA -0.4167
-0.1556 TORON- </s> 3.2626
-2.3155 TORONTO <UNK> 0.0000
-0.4040 TORONTO </s> 1.6601
-1.1599 TORONTO AND -0.3396
-2.3155 TORONTO BUFFALO 0.0000
-2.1174 TORONTO GO -0.3876
-1.8071 TORONTO INSTEAD 0.1158
-2.1174 TORONTO ONE 0.0000
-1.8071 TORONTO SHOULD 0.0786
-2.1174 TORONTO THEN 0.0000
-1.8751 TORONTO THROUGH -0.0742
-0.5164 TORONTO TO -0.7453
-1.3817 TORONTO TRAIN -1.0091
-1.2568 TORONTO VIA -0.1779
-2.6116 TRAIN <UNK> 0.0000
-1.5516 TRAIN </s> 2.1042
-2.0852 TRAIN AND -1.0677
-0.9657 TRAIN AT -0.1394
-0.2288 TRAIN FROM -0.4647
-3.0189 TRAIN GO 0.0000
-2.8208 TRAIN GOES 0.1186
-3.0189 TRAIN GOING 0.0000
-0.9115 TRAIN IN -0.0078
-2.5105 TRAIN IS -0.2105
-2.8208 TRAIN OVER -0.1072
-2.1230 TRAIN SHOULD -0.2453
-2.5786 TRAIN THAT -0.1039
-2.2613 TRAIN THAT'S -1.0207
-2.0182 TRAIN THROUGH -0.1023
-1.0405 TRAIN TO 0.0088
-3.0189 TRAIN WHICH -0.2018
-1.7522 TRAINS <UNK> 0.0000
-0.2444 TRAINS </s> 2.0638
-0.9945 TRAINS ARE -1.0209
-1.7522 TRAINS ARE_THERE 0.0668
-1.5541 TRAINS FROM 0.0000
-0.7837 TRAINS TO -0.1456
-0.0669 TRAVEL FROM -0.3414
-1.3017 TRAVEL THROUGH 0.0000
-1.3017 TRAVEL TO 0.0000
-0.6565 TRIP </s> 3.2317
-0.4473 TRIP FROM 0.0000
-0.8546 TRIP TO 0.0000
-0.8869 TRY AGAIN 0.0000
-0.3854 TRY GOING -0.3611
-1.0850 TRY TAKING 0.1226
-0.1556 TRYING TO -0.4438
-0.1556 TURING TEST 0.0668
-1.9751 UH <UNK> 0.0000
-1.9751 UH </s> 3.2626
-1.9751 UH ATLANTA 0.0000
-1.7770 UH CANCEL -0.1110
-1.9751 UH CLEVELAND 0.0000
-1.7770 UH DON'T 0.1413
-1.7770 UH FINALLY -0.2635
-1.7770 UH FORGET -0.0838
-1.9751 UH FROM 0.0000
-1.4667 UH GO 0.0012
-1.5679 UH I 0.0000
-1.9751 UH I'M 0.0000
-0.9445 UH LET'S 0.2174
-1.9751 UH MAYBE 0.0000
-1.9751 UH MOVE 0.1077
-1.1663 UH NO -0.0639
-1.5348 UH NOW -0.1041
-1.5679 UH OKAY 0.0000
-1.9751 UH PLEASE 0.0000
-1.7770 UH RALEIGH -0.1433
-1.5679 UH SEND 0.2689
-1.9751 UH STAY 0.0000
-1.4667 UH TAKE 0.5775
-1.9751 UH THE 0.0000
-1.2175 UH THROUGH -0.0481
-1.5679 UH TO -0.1552
-1.7770 UH VIA 0.0000
-1.0007 UM BRING -0.3393
-1.0007 UM LET'S 0.0000
-0.3317 UNDERSTAND MY -0.3891
-0.4337 UNDO </s> 2.8719
-0.3757 UNDO THAT -0.0228
-0.9352 UNDO THE -0.2426
-0.1556 UNTIL YOU'RE -0.3811
-0.7984 UP </s> 2.3948
-1.9751 UP FROM 0.0000
-1.5679 UP THE 0.2302
-1.2175 UP THROUGH -0.1437
-0.1663 UP TO -0.5645
-1.6028 USE BALTIMORE 0.0000
-1.4047 USE CHICAGO 0.0101
-1.1955 USE CLEVELAND 0.0671
-1.6028 USE COLUMBUS -0.4272
-1.6028 USE DETROIT 0.0000
-1.6028 USE LEXINGTON 0.0000
-1.6028 USE SCRANTON -0.2761
-1.4047 USE SYRACUSE 0.0000
-0.2858 USE THE -0.4080
-0.2585 VERY GOOD 0.0000
-1.9558 VIA <UNK> 0.0787
-1.4624 VIA ALBANY -0.3788
-1.5416 VIA ATLANTA -0.4472
-2.3962 VIA AVON -0.0645
-1.5416 VIA BALTIMORE -0.2373
-1.0101 VIA BUFFALO -0.4697
-2.1981 VIA BURLINGTON 0.0099
-1.3375 VIA CHARLESTON -0.3190
-1.5873 VIA CHARLOTTE -0.1034
-1.8878 VIA CHICAGO -0.1271
-1.2628 VIA CINCINNATI -1.1075
-1.5002 VIA CLEVELAND -0.4943
-1.1102 VIA COLUMBUS -0.2840
-1.2863 VIA DETROIT -0.5315
-1.5002 VIA INDIANAPOLIS -0.4390
-1.6965 VIA LEXINGTON -0.1309
-1.5002 VIA NEW_YORK -0.3295
-1.4624 VIA PHILADELPHIA -0.2255
-1.1102 VIA PITTSBURGH -0.4274
-1.5873 VIA RALEIGH -0.5500
-1.9558 VIA RICHMOND 0.0580
-1.9558 VIA SCRANTON -0.1177
-1.1799 VIA SYRACUSE -1.1141
-1.1436 VIA TOLEDO -0.2809
-1.5416 VIA TORONTO -0.0291
-1.5416 VIA WASHINGTON -0.0775
-0.1556 VOICE </s> 3.2626
-0.1556 WA- </s> 3.2626
-1.6741 WANT ALBANY 0.0000
-1.4760 WANT GO -0.1366
-1.2337 WANT THE -0.2428
-0.1035 WANT TO -0.7779
-0.2254 WANTED TO 0.0000
-0.0872 WANT_TO GO -0.6780
-0.8960 WANT_TO TAKE 0.3476
-0.5441 WARSAW </s> 2.8139
-1.3017 WARSAW AND 0.0000
-1.3017 WARSAW TAKE -0.4272
-0.4058 WARSAW TO -0.7418
-1.1333 WAS IN 0.0000
-0.2788 WAS THE -0.9939
-0.3317 WASHING- </s> 3.2626
-0.2441 WASHINGTON </s> 1.4740
-1.3410 WASHINGTON AND -0.2527
-2.3417 WASHINGTON BALTIMORE 0.0000
-1.5840 WASHINGTON INSTEAD -0.3969
-2.3417 WASHINGTON IS 0.0000
-2.3417 WASHINGTON PHILADELPHIA 0.0000
-1.9013 WASHINGTON RALEIGH -0.7418
-2.1436 WASHINGTON RICHMOND -0.2392
-1.4871 WASHINGTON THROUGH -0.1499
-0.8339 WASHINGTON TO -0.2683
-1.9013 WASHINGTON TRAIN -0.7367
-1.3410 WASHINGTON VIA -0.0996
-0.2585 WASHINGTON_D_C </s> 3.2317
-0.4934 WATKINS_GLEN </s> 2.9389
-0.7357 WATKINS_GLEN TO -0.2453
-0.8606 WAY </s> 3.2317
-0.2499 WAY OF -0.1523
-0.6514 WAY TO -0.1570
-1.2859 WE ARE 0.0000
-0.8786 WE GO 0.0000
-0.8786 WE MOVE -0.0250
-0.8456 WE NEED 0.5643
-1.2859 WE START 0.0416
-1.0878 WE TAKE 0.3167
-0.2254 WE'LL GO -0.0490
-0.6327 WE'LL TAKE 0.3476
-0.2825 WE'RE DONE 0.1311
-0.7079 WE'RE FINISHED 0.6962
-1.0182 WE'RE GOING -0.3226
-0.4102 WELL </s> 2.8719
-0.6695 WELL LET'S 0.3420
-0.1556 WENT THROUGH 0.0000
-0.3173 WERE THE -0.3412
-0.6327 WEST TO 0.0000
-1.4566 WHAT </s> 3.2626
-1.0493 WHAT ARE 0.2391
-1.4566 WHAT I 0.0000
-1.4566 WHAT IF -0.2255
-1.2585 WHAT IS 0.0000
-1.4566 WHAT SHOULD -0.4428
-1.4566 WHAT THE 0.0000
-0.6478 WHAT WAS -0.6297
-1.0163 WHAT WERE -0.4928
-0.5016 WHAT'S OUR -0.2327
-0.5016 WHAT'S THE 0.0000
-0.1336 WHAT_ARE THE -0.4832
-0.2593 WHAT_IS THE -0.1021
-1.7941 WHERE AM -0.3800
-0.2674 WHERE ARE -1.0109
-1.3868 WHERE ELSE 0.0430
-0.6842 WHERE IS -0.3645
-1.5960 WHERE THE -0.2326
-1.7941 WHERE WERE 0.0000
-0.3317 WHERE'S <UNK> -0.2699
-0.3554 WHICH IS -0.2167
-0.5535 WHY DID -0.3577
-0.1336 WILL BE 0.0000
-1.0587 WITH THAT -0.4137
-0.5503 WITH THE 0.1449
-1.0587 WITH THIS 0.0000
-0.2924 WONDERFUL </s> 3.1299
-0.1336 WORRY ABOUT -0.3999
-0.0792 WOULD LIKE 0.0212
-0.9685 YEAH I 0.0000
-0.9685 YEAH THAT'S 0.0000
-0.4566 YELLOW ROUTE 0.0000
-0.4566 YELLOW TRAIN 0.0000
-0.2632 YES </s> 2.3368
-0.9896 YES THAT'S -0.3166
-0.3317 YORK </s> 3.2626
-0.2585 YORKSHIRE AND -0.4841
-1.1386 YOU <UNK> 0.0000
-0.7132 YOU </s> 2.6378
-1.6470 YOU ARE 0.0000
-1.6470 YOU BEGIN -0.2677
-1.6470 YOU CAN 0.0000
-1.6470 YOU DID 0.0000
-1.6470 YOU DOING 0.0668
-1.6470 YOU DREW -0.1821
-1.6470 YOU GO 0.0000
-1.6470 YOU JUST 0.0000
-1.4489 YOU KNOW 0.0000
-1.6470 YOU PLEASE 0.0000
-1.6470 YOU SHOULD 0.0000
-1.6470 YOU STILL -0.3120
-1.4489 YOU THERE -0.0082
-1.2397 YOU TO -0.1330
-0.8088 YOU'RE <UNK> 0.0000
-0.8088 YOU'RE DONE 0.0000
-0.8088 YOU'RE NOT 0.0000

\3-grams:
-0.9959 <UNK> <UNK> <UNK>
-0.8290 <UNK> <UNK> </s>
-0.0044 <UNK> </s> <s>
-0.1720 <UNK> DONE </s>
-0.0792 <UNK> GO FROM
-0.0792 <UNK> MOVE THE
-0.1879 <UNK> OVER TO
-0.1879 <UNK> ROUTE </s>
-0.1879 <UNK> ROUTES </s>
-0.1879 <UNK> SYRACUSE </s>
-0.1720 <UNK> TAKE THE
-0.6492 <UNK> THE ROUTE
-0.4822 <UNK> THE TRAIN
-0.6650 <UNK> TRAIN </s>
-0.6650 <UNK> TRAIN AT
-0.6650 <UNK> TRAIN TO
-1.9461 </s> <s> <UNK>
-3.6038 </s> <s> -TON
-1.6677 </s> <s> </s>
-3.6038 </s> <s> ACTUALLY
-3.2449 </s> <s> AH
-3.0180 </s> <s> ALBANY
-2.4159 </s> <s> ALL
-2.8718 </s> <s> ALRIGHT
-3.6038 </s> <s> ALSO
-1.7213 </s> <s> AND
-3.0180 </s> <s> ARE
-3.0180 </s> <s> AVON
-1.9766 </s> <s> BACK
-3.2449 </s> <s> BAD
-3.6038 </s> <s> BOSTON
-3.6038 </s> <s> BUFFALO
-3.2449 </s> <s> BUT
-3.6038 </s> <s> BYE
-2.6755 </s> <s> CAN
-1.3459 </s> <s> CANCEL
-3.6038 </s> <s> CAN_I
-2.8718 </s> <s> CAN_YOU
-3.0180 </s> <s> CHARLESTON
-3.2449 </s> <s> CHARLOTTE
-3.2449 </s> <s> CHICAGO
-3.2449 </s> <s> CINCINNATI
-3.4118 </s> <s> CLEAR
-2.9388 </s> <s> COLUMBUS
-2.1149 </s> <s> CONTINUE
-3.6038 </s> <s> DETROIT
-2.6030 </s> <s> DO
-1.7213 </s> <s> DON'T
-2.4382 </s> <s> DONE
-3.6038 </s> <s> DRIVE
-3.6038 </s> <s> END
-2.5408 </s> <s> ERASE
-2.8138 </s> <s> EXCELLENT
-2.6377 </s> <s> FINALLY
-3.6038 </s> <s> FIND
-3.2449 </s> <s> FINE
-3.4118 </s> <s> FINISHED
-3.4118 </s> <s> FIRST
-3.6038 </s> <s> FOLLOW
-2.0357 </s> <s> FORGET
-1.9926 </s> <s> FROM
-3.2449 </s> <s> GET
-1.0241 </s> <s> GO
-2.0937 </s> <s> GOOD
-1.5708 </s> <s> GREAT
-2.9388 </s> <s> HAVE
-3.0180 </s> <s> HELLO
-2.7169 </s> <s> HI
-3.6038 </s> <s> HOLD
-2.3745 </s> <s> HOW
-3.6038 </s> <s> HOW'S
-2.7169 </s> <s> HOW_ABOUT
-1.7301 </s> <s> I
-2.3367 </s> <s> I'D
-3.6038 </s> <s> I'LL
-1.4031 </s> <s> I'M
-3.6038 </s> <s> IF
-3.6038 </s> <s> IGNORE
-2.6755 </s> <s> INSTEAD
-3.0180 </s> <s> IS
-2.8138 </s> <s> IS_THERE
-3.6038 </s> <s> IT
-2.0357 </s> <s> I_NEED
-1.7824 </s> <s> I_WANT
-3.6038 </s> <s> I_WOULD
-3.6038 </s> <s> JUST
-3.6038 </s> <s> LEAVE
-3.4118 </s> <s> LET
-1.4382 </s> <s> LET'S
-3.6038 </s> <s> LOOKS
-2.8138 </s> <s> MILWAUKEE
-3.6038 </s> <s> MONTREAL
-1.2872 </s> <s> MOVE
-2.8138 </s> <s> NEVER
-3.0180 </s> <s> NEW_YORK
-3.6038 </s> <s> NICE
-1.1741 </s> <s> NO
-2.7169 </s> <s> NOT
-1.3367 </s> <s> NOW
-2.9388 </s> <s> OH
-1.1138 </s> <s> OKAY
-3.6038 </s> <s> PENNSYLVANIA
-3.0180 </s> <s> PITTSBURGH
-2.3367 </s> <s> PLEASE
-3.4118 </s> <s> PUT
-2.6755 </s> <s> QUIT
-2.7169 </s> <s> RALEIGH
-3.2449 </s> <s> REROUTE
-3.2449 </s> <s> RIGHT
-2.4865 </s> <s> ROUTE
-3.6038 </s> <s> SAY
-2.9388 </s> <s> SCRANTON
-2.5708 </s> <s> SCRATCH
-1.2270 </s> <s> SEND
-3.0180 </s> <s> SHOW_ME
-3.4118 </s> <s> SKIP
-2.8718 </s> <s> SO
-3.2449 </s> <s> SORRY
-3.4118 </s> <s> SPLENDID
-2.0094 </s> <s> START
-3.4118 </s> <s> STARTING
-2.7169 </s> <s> STAY
-3.2449 </s> <s> STOP
-2.7627 </s> <s> SYRACUSE
-1.1958 </s> <s> TAKE
-3.0180 </s> <s> TELL_ME
-3.4118 </s> <s> TERRIBLE
-2.9388 </s> <s> THANK
-3.4118 </s> <s> THANKS
-2.9388 </s> <s> THANK_YOU
-2.7627 </s> <s> THAT
-1.8248 </s> <s> THAT'S
-1.7579 </s> <s> THE
-2.3367 </s> <s> THEN
-3.2449 </s> <s> THIS
-2.8718 </s> <s> THROUGH
-2.5708 </s> <s> TO
-3.4118 </s> <s> TOLEDO
-3.4118 </s> <s> TORONTO
-3.6038 </s> <s> TRAIN
-2.3552 </s> <s> TRAVEL
-3.0180 </s> <s> TRY
-2.0094 </s> <s> UH
-2.9388 </s> <s> UM
-2.5128 </s> <s> UNDO
-3.6038 </s> <s> UP
-2.2698 </s> <s> USE
-3.6038 </s> <s> WASHINGTON
-3.4118 </s> <s> WE
-2.9388 </s> <s> WE'RE
-2.9388 </s> <s> WELL
-2.4159 </s> <s> WHAT
-2.8718 </s> <s> WHAT'S
-3.4118 </s> <s> WHAT_ARE
-3.0180 </s> <s> WHAT_IS
-1.8657 </s> <s> WHERE
-3.4118 </s> <s> WHERE'S
-3.6038 </s> <s> WHICH
-3.2449 </s> <s> WHY
-3.6038 </s> <s> WITH
-2.9388 </s> <s> WONDERFUL
-2.7169 </s> <s> YEAH
-2.1041 </s> <s> YES
-2.8138 </s> <s> YOU
-3.2449 </s> <s> YOU'RE
-1.0719 <s> <UNK> <UNK>
-0.4091 <s> <UNK> </s>
-1.6577 <s> <UNK> DONE
-1.2988 <s> <UNK> MOVE
-1.6577 <s> <UNK> TAKE
-0.9927 <s> <UNK> THE
-0.0039 <s> </s> <s>
-0.2269 <s> ALBANY TO
-0.5229 <s> ALL DONE
-0.1871 <s> ALL RIGHT
-0.7320 <s> ALRIGHT LET'S
-0.7320 <s> ALRIGHT NOW
-1.6906 <s> AND GO
-1.5236 <s> AND I
-1.8825 <s> AND I'D
-1.2967 <s> AND I_NEED
-1.6906 <s> AND I_WANT
-0.9165 <s> AND LET'S
-0.6734 <s> AND NOW
-0.4274 <s> AND THEN
-1.6906 <s> AND TO
-1.8825 <s> AND UH
-0.2269 <s> ARE YOU
-0.2269 <s> AVON AND
-1.6272 <s> BACK </s>
-1.6272 <s> BACK TO
-0.0414 <s> BACK UP
-0.2970 <s> BAD </s>
-0.1879 <s> BOSTON TO
-0.1879 <s> BUFFALO BUFFALO
-0.1879 <s> BYE BYE
-0.1383 <s> CAN WE
-0.9283 <s> CAN YOU
-0.7913 <s> CANCEL </s>
-0.2440 <s> CANCEL THAT
-0.6898 <s> CANCEL THE
-2.0660 <s> CANCEL THIS
-2.0660 <s> CANCEL TRAIN
-0.1879 <s> CAN_I GET
-0.7320 <s> CAN_YOU TELL_ME
-0.7320 <s> CAN_YOU UNDERSTAND
-0.0792 <s> CHARLESTON TO
-0.1300 <s> CHARLOTTE TO
-0.2970 <s> CHICAGO TO
-0.1300 <s> CINCINNATI TO
-0.1720 <s> CLEAR THE
-0.0792 <s> COLUMBUS TO
-0.6021 <s> CONTINUE FROM
-1.2970 <s> CONTINUE THE
-0.2403 <s> CONTINUE TO
-0.0726 <s> DO NOT
-1.5236 <s> DON'T DO
-0.1264 <s> DON'T GO
-1.6906 <s> DON'T SEND
-1.5236 <s> DON'T TAKE
-1.0414 <s> DON'T USE
-1.8825 <s> DON'T WORRY
-0.0235 <s> DONE </s>
-0.1879 <s> DRIVE THE
-0.1879 <s> END THE
-0.8710 <s> ERASE THAT
-0.1761 <s> ERASE THE
-0.2041 <s> EXCELLENT </s>
-0.5980 <s> EXCELLENT I'M
-0.9660 <s> FINALLY I
-0.3802 <s> FINALLY I_WANT
-0.9660 <s> FINALLY TAKE
-0.1720 <s> FINISHED </s>
-0.3802 <s> FORGET IT
-0.4508 <s> FORGET THAT
-1.2092 <s> FORGET THE
-1.6111 <s> FROM ALBANY
-0.9461 <s> FROM CHARLESTON
-1.6111 <s> FROM CHARLOTTE
-1.4192 <s> FROM CINCINNATI
-1.6111 <s> FROM MONTREAL
-0.7243 <s> FROM PITTSBURGH
-1.2522 <s> FROM RALEIGH
-1.2522 <s> FROM RICHMOND
-1.2522 <s> FROM SCRANTON
-1.6111 <s> FROM TOLEDO
-0.4889 <s> GET RID
-0.4889 <s> GET TO
-1.5467 <s> GO BACK
-1.5168 <s> GO DIRECTLY
-0.2663 <s> GO FROM
-1.9939 <s> GO ON
-0.7435 <s> GO THROUGH
-1.0696 <s> GO TO
-0.9768 <s> GO VIA
-2.3878 <s> GO WEST
-0.4771 <s> GOOD </s>
-1.5101 <s> GOOD I'M
-1.5101 <s> GOOD JOB
-1.3182 <s> GOOD LET'S
-0.6232 <s> GOOD NOW
-1.5101 <s> GOOD TAKE
-1.1047 <s> GREAT </s>
-2.0330 <s> GREAT I
-0.4929 <s> GREAT I'M
-0.8037 <s> GREAT LET'S
-0.4740 <s> GREAT NOW
-1.8410 <s> GREAT OKAY
-1.8410 <s> GREAT UH
-0.0669 <s> HAVE THE
-0.0792 <s> HELLO </s>
-0.6949 <s> HI </s>
-0.8869 <s> HI I_NEED
-0.6949 <s> HI I_WANT
-0.1879 <s> HOLD DOWN
-1.2293 <s> HOW ARE
-1.0373 <s> HOW DO
-0.5643 <s> HOW LONG
-0.4393 <s> HOW MANY
-0.5280 <s> HOW_ABOUT FROM
-1.8736 <s> I <UNK>
-0.7315 <s> I ALSO
-1.0837 <s> I AM
-1.8736 <s> I BELIEVE
-1.8736 <s> I DIDN'T
-1.5147 <s> I DO
-0.7563 <s> I DON'T
-1.8736 <s> I NEED
-0.9868 <s> I SAID
-1.2878 <s> I THINK
-1.2086 <s> I WANT
-1.8736 <s> I WANTED
-1.6817 <s> I WANT_TO
-0.9454 <s> I WOULD
-0.0792 <s> I'D LIKE
-2.0088 <s> I'M <UNK>
-0.0374 <s> I'M DONE
-1.5357 <s> I'M FINISHED
-0.1879 <s> IGNORE THAT
-0.1963 <s> INSTEAD OF
-0.9283 <s> INSTEAD TAKE
-0.3939 <s> IS THIS
-0.1249 <s> IS_THERE A
-0.7900 <s> IS_THERE AN
-1.3762 <s> I_NEED A
-0.0280 <s> I_NEED TO
-1.8214 <s> I_WANT THE
-0.0207 <s> I_WANT TO
-0.1879 <s> I_WOULD LIKE
-0.1879 <s> LEAVE THE
-0.3640 <s> LET ME
-2.1656 <s> LET'S <UNK>
-2.1656 <s> LET'S FORGET
-0.2875 <s> LET'S GO
-1.5798 <s> LET'S MOVE
-2.1656 <s> LET'S NOT
-2.1656 <s> LET'S SEE
-1.8067 <s> LET'S SEND
-1.0000 <s> LET'S START
-0.6990 <s> LET'S TAKE
-1.8067 <s> LET'S TALK
-1.9737 <s> LET'S TRY
-2.1656 <s> LET'S UH
-1.8067 <s> LET'S USE
-0.1879 <s> LOOKS GOOD
-0.5980 <s> MILWAUKEE TO
-0.5980 <s> MILWAUKEE TRAIN
-0.1879 <s> MONTREAL TO
-2.1247 <s> MOVE A
-0.8734 <s> MOVE FROM
-2.1247 <s> MOVE IT
-2.3166 <s> MOVE MOVE
-2.1247 <s> MOVE NEW_YORK
-1.9577 <s> MOVE ONE
-2.3166 <s> MOVE PHILADELPHIA
-0.1287 <s> MOVE THE
-2.1247 <s> MOVE TO
-1.6516 <s> MOVE TRAIN
-0.0512 <s> NEVER MIND
-0.5858 <s> NEW_YORK </s>
-0.5858 <s> NEW_YORK TO
-2.0708 <s> NO <UNK>
-0.7946 <s> NO </s>
-1.2206 <s> NO CANCEL
-1.0113 <s> NO DON'T
-2.4297 <s> NO ERASE
-1.6397 <s> NO FORGET
-2.4297 <s> NO FROM
-0.6290 <s> NO GO
-1.5428 <s> NO I
-2.2377 <s> NO I'M
-2.4297 <s> NO INSTEAD
-1.1811 <s> NO I_WANT
-1.1279 <s> NO LET'S
-1.4636 <s> NO NO
-2.0708 <s> NO NOT
-1.5428 <s> NO SEND
-2.2377 <s> NO START
-1.4636 <s> NO STAY
-1.5886 <s> NO TAKE
-1.7647 <s> NO UH
-2.4297 <s> NO USE
-0.6949 <s> NOT TO
-2.2671 <s> NOW </s>
-1.4260 <s> NOW CONTINUE
-1.5351 <s> NOW FROM
-0.5607 <s> NOW GO
-2.2671 <s> NOW I
-1.9082 <s> NOW I_NEED
-1.2663 <s> NOW I_WANT
-1.0185 <s> NOW LET'S
-1.0185 <s> NOW MOVE
-1.6812 <s> NOW PROCEED
-1.4260 <s> NOW SEND
-0.6168 <s> NOW TAKE
-2.2671 <s> NOW THE
-1.9082 <s> NOW TO
-2.4900 <s> OKAY <UNK>
-2.1311 <s> OKAY </s>
-1.4892 <s> OKAY AND
-2.2981 <s> OKAY BUT
-2.4900 <s> OKAY CANCEL
-1.9042 <s> OKAY DON'T
-2.1311 <s> OKAY FINALLY
-1.6489 <s> OKAY FORGET
-2.2981 <s> OKAY FROM
-1.1407 <s> OKAY GO
-1.4570 <s> OKAY I
-1.4271 <s> OKAY I'D
-1.1882 <s> OKAY I'M
-1.1560 <s> OKAY I_NEED
-1.3727 <s> OKAY I_WANT
-0.6164 <s> OKAY LET'S
-1.8250 <s> OKAY MOVE
-0.8956 <s> OKAY NOW
-1.7580 <s> OKAY SEND
-2.1311 <s> OKAY SO
-1.3727 <s> OKAY TAKE
-2.1311 <s> OKAY THAT'S
-1.8250 <s> OKAY THE
-1.7001 <s> OKAY THEN
-2.2981 <s> OKAY UH
-2.2981 <s> OKAY WE'RE
-2.4900 <s> OKAY WELL
-0.1879 <s> PENNSYLVANIA TO
-0.5858 <s> PITTSBURGH </s>
-0.3939 <s> PITTSBURGH TO
-0.4260 <s> PLEASE GO
-1.2671 <s> PLEASE PLAN
-1.2671 <s> PLEASE SEND
-0.9082 <s> PLEASE TAKE
-0.1720 <s> PUT THE
-0.0414 <s> QUIT </s>
-0.2218 <s> RALEIGH </s>
-0.6949 <s> RALEIGH TO
-0.4889 <s> REROUTE THE
-0.0843 <s> ROUTE THE
-1.1173 <s> ROUTE VIA
-0.4731 <s> SCRANTON TO
-0.1461 <s> SCRATCH THAT
-0.6741 <s> SCRATCH THE
-2.1849 <s> SEND </s>
-2.3768 <s> SEND CHARLOTTE
-1.3760 <s> SEND IT
-0.0851 <s> SEND THE
-2.3768 <s> SEND TORONTO
-0.9848 <s> SEND TRAIN
-0.5858 <s> SHOW_ME THE
-0.5858 <s> SHOW_ME WHERE
-0.3640 <s> SKIP ALBANY
-0.7320 <s> SO LET'S
-0.1720 <s> SPLENDID </s>
-1.5944 <s> START AGAIN
-1.5944 <s> START AT
-1.5944 <s> START FROM
-1.5944 <s> START IN
-0.1165 <s> START OVER
-1.4025 <s> START THE
-0.3640 <s> STARTING IN
-0.0458 <s> STAY IN
-0.8411 <s> SYRACUSE </s>
-0.2553 <s> SYRACUSE TO
-1.5669 <s> TAKE A
-1.2201 <s> TAKE IT
-2.4080 <s> TAKE THAT
-0.0543 <s> TAKE THE
-2.4080 <s> TAKE WASHINGTON
-0.5858 <s> TELL_ME THE
-0.3939 <s> TELL_ME WHERE
-0.0669 <s> THANK YOU
-0.6650 <s> THANK_YOU </s>
-0.4731 <s> THANK_YOU I'M
-0.4822 <s> THAT LOOKS
-0.6492 <s> THAT WAS
-0.6880 <s> THAT'S FINE
-1.1139 <s> THAT'S GOOD
-0.5119 <s> THAT'S GREAT
-0.4942 <s> THAT'S OKAY
-1.8459 <s> THE BLUE
-1.8459 <s> THE COLUMBUS
-0.9176 <s> THE ENGINE
-1.8459 <s> THE INDIANAPOLIS
-1.6540 <s> THE NEW_YORK
-1.1809 <s> THE ONE
-1.1809 <s> THE ROUTE
-0.2963 <s> THE TRAIN
-1.8459 <s> THE TRAINS
-0.9082 <s> THEN FROM
-0.9082 <s> THEN GO
-0.5351 <s> THEN ON
-1.2671 <s> THEN SEND
-1.0751 <s> THEN TO
-0.2970 <s> THIS IS
-0.7320 <s> THROUGH SYRACUSE
-1.0330 <s> TO SYRACUSE
-0.3640 <s> TOLEDO TO
-0.3640 <s> TORONTO TO
-0.0185 <s> TRAVEL FROM
-0.5858 <s> TRY GOING
-1.4025 <s> UH DON'T
-1.5944 <s> UH FINALLY
-1.5944 <s> UH GO
-1.5944 <s> UH I
-1.5944 <s> UH I'M
-0.9294 <s> UH LET'S
-1.5944 <s> UH MOVE
-0.7533 <s> UH NO
-1.2355 <s> UH OKAY
-1.5944 <s> UH PLEASE
-1.5944 <s> UH SEND
-1.2355 <s> UH TAKE
-1.5944 <s> UH THE
-0.4260 <s> UNDO </s>
-0.4260 <s> UNDO THAT
-0.8990 <s> UNDO THE
-1.3340 <s> USE CLEVELAND
-1.1421 <s> USE SYRACUSE
-0.1684 <s> USE THE
-0.3640 <s> WE NEED
-0.6650 <s> WE'RE DONE
-0.4731 <s> WE'RE FINISHED
-0.6650 <s> WELL LET'S
-0.8290 <s> WHAT ARE
-1.1879 <s> WHAT IF
-1.1879 <s> WHAT SHOULD
-0.5229 <s> WHAT WAS
-0.6021 <s> WHAT WERE
-0.5400 <s> WHAT'S OUR
-0.5400 <s> WHAT'S THE
-0.1720 <s> WHAT_ARE THE
-0.2269 <s> WHAT_IS THE
-0.1980 <s> WHERE ARE
-1.5462 <s> WHERE ELSE
-0.6471 <s> WHERE IS
-0.3640 <s> WHERE'S <UNK>
-0.4889 <s> WHY DID
-0.4731 <s> WONDERFUL </s>
-0.8869 <s> YEAH I
-0.8869 <s> YEAH THAT'S
-0.2511 <s> YES </s>
-0.9138 <s> YES THAT'S
-0.7900 <s> YOU ARE
-0.4889 <s> YOU'RE NOT
-0.5980 A <UNK> </s>
-0.1879 A DIFFERENT ROUTE
-0.1879 A GOAL </s>
-0.1879 A MINUTE </s>
-0.1879 A MOMENT BEFORE
-0.0792 A ROUTE FROM
-0.7782 A TRAIN AT
-0.2499 A TRAIN FROM
-1.3762 A TRAIN IN
-0.7782 A TRAIN TO
-0.1879 A TRIP FROM
-0.4889 ABOUT IT UH
-0.0512 ABOUT THE TRAIN
-0.1300 AFTER WASHINGTON </s>
-0.0235 AGAIN </s> <s>
-0.3640 AGAIN AT PHILADELPHIA
-0.0033 ALBANY </s> <s>
-0.3640 ALBANY AGAIN </s>
-0.4889 ALBANY ALBANY </s>
-0.4889 ALBANY ALBANY ALBANY
-1.0008 ALBANY AND BUFFALO
-0.4150 ALBANY AND SYRACUSE
-1.0008 ALBANY AND THEN
-0.1879 ALBANY BURLINGTON AND
-0.1300 ALBANY DOWN TO
-0.0792 ALBANY GO TO
-0.0414 ALBANY INSTEAD </s>
-0.0458 ALBANY SYRACUSE AND
-0.7320 ALBANY THROUGH NEW_YORK
-0.5400 ALBANY THROUGH SYRACUSE
-1.7441 ALBANY TO <UNK>
-1.5772 ALBANY TO BOSTON
-1.1461 ALBANY TO BUFFALO
-1.2041 ALBANY TO BURLINGTON
-1.2711 ALBANY TO CHICAGO
-0.9031 ALBANY TO LEXINGTON
-1.7441 ALBANY TO MILWAUKEE
-1.2711 ALBANY TO MONTREAL
-0.9700 ALBANY TO NEW_YORK
-1.0950 ALBANY TO PHILADELPHIA
-1.3502 ALBANY TO PITTSBURGH
-1.9361 ALBANY TO SCRANTON
-0.9353 ALBANY TO SYRACUSE
-0.9031 ALBANY TO WASHINGTON
-0.1091 ALBANY TRAIN TO
-0.3010 ALBANY VIA SYRACUSE
-0.0669 ALL DONE </s>
-1.0630 ALL RIGHT I'M
-0.7041 ALL RIGHT LET'S
-1.0630 ALL RIGHT NOW
-0.3939 ALL THE WAY
-0.1879 ALSO </s> <s>
-0.0458 ALSO NEED TO
-0.0248 ALSO WANT TO
-0.1879 ALSO WANT_TO GO
-0.0580 AM DONE </s>
-0.1720 AM FINISHED </s>
-0.3640 AM I SUPPOSED
-0.1879 AN ENGINE AT
-0.1879 AN ERROR GOT
-0.5858 AND <UNK> </s>
-0.1879 AND </s> <s>
-0.3731 AND ALBANY </s>
-0.7320 AND ALBANY INSTEAD
-0.1720 AND ANOTHER TO
-0.0669 AND ATLANTA </s>
-0.3640 AND BACK TO
-0.0726 AND BALTIMORE </s>
-1.0008 AND BALTIMORE TO
-0.0792 AND BOSTON </s>
-0.1720 AND BRING IT
-0.1076 AND BUFFALO </s>
-1.4996 AND BUFFALO AND
-1.3077 AND BUFFALO INSTEAD
-1.1408 AND BUFFALO TO
-0.2970 AND BURLINGTON </s>
-0.3061 AND CANANDAIGUA </s>
-0.0696 AND CHARLESTON </s>
-1.3182 AND CHARLESTON TO
-0.0185 AND CHARLOTTE </s>
-0.1461 AND CHICAGO </s>
-0.8410 AND CHICAGO TO
-0.1871 AND CINCINNATI </s>
-0.6021 AND CINCINNATI TO
-0.0512 AND CLEVELAND </s>
-0.1996 AND COLUMBUS </s>
-1.1656 AND COLUMBUS INSTEAD
-0.9737 AND COLUMBUS TO
-0.1413 AND DETROIT </s>
-1.1421 AND DETROIT TO
-0.1879 AND DO NOT
-0.2970 AND FINALLY LET'S
-0.1879 AND FRANKLINVILLE </s>
-1.3018 AND GO FROM
-0.1139 AND GO TO
-0.3061 AND I ALSO
-0.1879 AND I'D LIKE
-0.1047 AND INDIANAPOLIS </s>
-1.0330 AND INDIANAPOLIS PLEASE
-0.0792 AND I_NEED TO
-0.0580 AND I_WANT TO
-0.1761 AND LET'S GO
-1.0630 AND LET'S SEND
-0.8710 AND LET'S TAKE
-0.0300 AND LEXINGTON </s>
-0.0414 AND MILWAUKEE </s>
-0.1091 AND MONTREAL </s>
-0.2341 AND NEW_YORK </s>
-0.7741 AND NEW_YORK TO
-1.2671 AND NOW CONTINUE
-1.2671 AND NOW FROM
-1.2671 AND NOW GO
-1.2671 AND NOW I
-1.2671 AND NOW I_WANT
-0.6021 AND NOW LET'S
-1.2671 AND NOW ON
-0.1720 AND ON TO
-0.0458 AND PHILADELPHIA </s>
-0.1047 AND PITTSBURGH </s>
-1.1421 AND PITTSBURGH INSTEAD
-0.0512 AND RALEIGH </s>
-0.1313 AND RICHMOND </s>
-1.2486 AND RICHMOND INSTEAD
-0.8897 AND RICHMOND TO
-0.2341 AND SCRANTON </s>
-1.2671 AND SCRANTON AND
-1.0751 AND SCRANTON INSTEAD
-0.6812 AND SCRANTON TO
-0.0458 AND SEND IT
-0.0792 AND SYRACUSE </s>
-1.2671 AND SYRACUSE THEN
-0.4731 AND TAKE IT
-0.4731 AND TAKE THE
-0.3939 AND THE CINCINNATI
-1.9438 AND THEN CHARLESTON
-1.9438 AND THEN CONTINUE
-1.7518 AND THEN DIRECTLY
-0.8528 AND THEN GO
-0.8528 AND THEN ON
-1.3579 AND THEN TAKE
-1.5849 AND THEN THROUGH
-0.4037 AND THEN TO
-1.2788 AND THEN UP
-1.1421 AND TO CHARLOTTE
-0.9502 AND TO CLEVELAND
-0.9502 AND TO WASHINGTON
-0.2218 AND TOLEDO </s>
-1.2848 AND TOLEDO AND
-0.6198 AND TOLEDO TO
-0.0395 AND TORONTO </s>
-0.1720 AND WARSAW </s>
-0.0322 AND WASHINGTON </s>
-0.1879 ANOTHER TRAIN TO
-0.3640 ANY PLACE AFTER
-0.1879 ANYWAY </s> <s>
-0.1720 ARE </s> <s>
-0.3061 ARE AT RICHMOND
-0.6650 ARE AT TORONTO
-1.3670 ARE THE DESTINATIONS
-0.0700 ARE THE TRAINS
-0.1879 ARE THEY </s>
-0.7900 ARE YOU STILL
-0.5980 ARE YOU THERE
-0.1879 ARE_THERE </s> <s>
-0.0792 AS WELL </s>
-0.2218 AT ALBANY </s>
-1.1879 AT ALBANY AGAIN
-0.8290 AT ALBANY TO
-0.5980 AT ATLANTA </s>
-0.1720 AT BALTIMORE TO
-0.7900 AT BOSTON SHOULD
-0.7900 AT BOSTON THROUGH
-0.5980 AT BOSTON TO
-0.0580 AT BURLINGTON TO
-0.3590 AT CHARLESTON </s>
-0.5051 AT CHARLESTON TO
-0.8411 AT CHARLOTTE </s>
-0.8411 AT CHARLOTTE AND
-0.4822 AT CHARLOTTE TO
-0.6949 AT CINCINNATI </s>
-0.2218 AT CINCINNATI TO
-0.1249 AT CLEVELAND </s>
-0.7900 AT CLEVELAND TO
-0.3939 AT COLUMBUS TO
-0.5858 AT DETROIT </s>
-0.5858 AT DETROIT AGAIN
-0.9254 AT INDIANAPOLIS </s>
-1.1173 AT INDIANAPOLIS GO
-0.9254 AT INDIANAPOLIS THROUGH
-0.2762 AT INDIANAPOLIS TO
-0.6741 AT LEXINGTON </s>
-1.0330 AT LEXINGTON INSTEAD
-0.3010 AT LEXINGTON TO
-0.2632 AT MILWAUKEE </s>
-0.9283 AT MILWAUKEE TO
-0.1249 AT MONTREAL TO
-0.0669 AT NEW_YORK TO
-0.3310 AT PHILADELPHIA </s>
-0.4771 AT PHILADELPHIA TO
-0.3939 AT PITTSBURGH TO
-0.6492 AT RALEIGH </s>
-0.6492 AT RALEIGH TO
-0.3854 AT RICHMOND </s>
-0.2762 AT RICHMOND TO
-0.0669 AT SCRANTON TO
-0.5694 AT SYRACUSE TO
-0.4889 AT TOLEDO TO
-0.3757 AT TORONTO </s>
-0.8067 AT TORONTO SHOULD
-0.5006 AT TORONTO TO
-0.3939 AT WASHINGTON </s>
-0.0033 ATLANTA </s> <s>
-1.0008 ATLANTA AND BUFFALO
-1.0008 ATLANTA AND GO
-1.0008 ATLANTA AND THEN
-0.1879 ATLANTA GO TO
-0.1383 ATLANTA INSTEAD </s>
-0.7363 ATLANTA INSTEAD OF
-0.1300 ATLANTA RALEIGH AND
-0.6949 ATLANTA THROUGH CHARLOTTE
-0.8869 ATLANTA THROUGH PITTSBURGH
-1.2041 ATLANTA TO BOSTON
-1.4311 ATLANTA TO CHARLOTTE
-1.0580 ATLANTA TO CHICAGO
-1.4311 ATLANTA TO CINCINNATI
-1.0580 ATLANTA TO CLEVELAND
-1.7900 ATLANTA TO COLUMBUS
-0.9031 ATLANTA TO INDIANAPOLIS
-1.0000 ATLANTA TO LEXINGTON
-1.7900 ATLANTA TO MILWAUKEE
-1.5980 ATLANTA TO MONTREAL
-1.2041 ATLANTA TO PHILADELPHIA
-1.7900 ATLANTA TO PITTSBURGH
-1.2041 ATLANTA TO RALEIGH
-1.1249 ATLANTA TO SYRACUSE
-1.7900 ATLANTA TO TOLEDO
-1.7900 ATLANTA TO WASHINGTON
-0.7320 ATLANTA TRAIN OVER
-0.5400 ATLANTA TRAIN THROUGH
-0.7320 ATLANTA TRAIN TO
-0.0414 ATLANTA UP TO
-0.8411 ATLANTA VIA CHARLOTTE
-0.4822 ATLANTA VIA RALEIGH
-0.0280 AVON </s> <s>
-0.0669 AVON AND CANANDAIGUA
-0.1879 AVON INSTEAD </s>
-0.1300 BACK </s> <s>
-1.2848 BACK TO ALBANY
-0.9259 BACK TO ATLANTA
-1.2848 BACK TO BOSTON
-0.9259 BACK TO CHARLESTON
-1.0929 BACK TO CLEVELAND
-0.4523 BACK UP </s>
-1.2355 BACK UP THE
-0.2762 BACK UP TO
-0.0792 BAD </s> <s>
-0.0047 BALTIMORE </s> <s>
-1.1421 BALTIMORE AND ATLANTA
-1.1421 BALTIMORE AND MONTREAL
-1.1421 BALTIMORE AND NEW_YORK
-1.1421 BALTIMORE AND SYRACUSE
-0.7832 BALTIMORE AND WASHINGTON
-0.1879 BALTIMORE INSTEAD </s>
-0.1879 BALTIMORE OVER TO
-0.3640 BALTIMORE PHILADELPHIA AND
-0.4889 BALTIMORE THEN ON
-0.4889 BALTIMORE THROUGH WASHINGTON
-1.3384 BALTIMORE TO ALBANY
-1.1714 BALTIMORE TO BUFFALO
-1.1714 BALTIMORE TO CHARLOTTE
-1.5303 BALTIMORE TO MILWAUKEE
-1.3384 BALTIMORE TO NEW_YORK
-1.5303 BALTIMORE TO PITTSBURGH
-1.3384 BALTIMORE TO RALEIGH
-1.1714 BALTIMORE TO RICHMOND
-1.5303 BALTIMORE TO SCRANTON
-0.6435 BALTIMORE TO WASHINGTON
-0.2269 BALTIMORE UP TO
-0.1879 BALTIMORE WASHINGTON RICHMOND
-0.0580 BATH </s> <s>
-0.1879 BEAUTIFUL </s> <s>
-0.1879 BEFORE YOU BEGIN
-0.1879 BEGIN TALKING AND
-0.0045 BOSTON </s> <s>
-0.6949 BOSTON AND GO
-0.8869 BOSTON AND RICHMOND
-0.3640 BOSTON GO THROUGH
-0.1300 BOSTON SHOULD GO
-0.1761 BOSTON THROUGH ALBANY
-0.7202 BOSTON TO ALBANY
-1.3182 BOSTON TO BALTIMORE
-0.9243 BOSTON TO BUFFALO
-1.5101 BOSTON TO BURLINGTON
-1.5101 BOSTON TO CHICAGO
-1.5101 BOSTON TO MONTREAL
-0.8451 BOSTON TO PHILADELPHIA
-1.3182 BOSTON TO RICHMOND
-1.1512 BOSTON TO SYRACUSE
-0.1720 BOSTON TRAIN TO
-0.9737 BOSTON VIA BUFFALO
-0.9737 BOSTON VIA PHILADELPHIA
-0.9737 BOSTON VIA PITTSBURGH
-0.9737 BOSTON VIA WASHINGTON
-0.4889 BRING IT BACK
-0.4889 BRING IT TO
-0.1879 BRING THE TRAIN
-0.0025 BUFFALO </s> <s>
-0.9542 BUFFALO AND CLEVELAND
-1.5401 BUFFALO AND GO
-0.6532 BUFFALO AND PITTSBURGH
-0.8081 BUFFALO AND SYRACUSE
-0.8751 BUFFALO AND THEN
-1.5401 BUFFALO AND TO
-0.7501 BUFFALO AND TOLEDO
-0.3061 BUFFALO BUFFALO BUFFALO
-0.1879 BUFFALO CHARLOTTE AND
-0.5858 BUFFALO CLEVELAND AND
-0.3939 BUFFALO CLEVELAND TOLEDO
-0.1720 BUFFALO DOWN TO
-0.1879 BUFFALO GO THROUGH
-0.0544 BUFFALO INSTEAD </s>
-1.1173 BUFFALO INSTEAD OF
-0.5400 BUFFALO PITTSBURGH AND
-0.3731 BUFFALO PITTSBURGH CHARLESTON
-0.1879 BUFFALO PLEASE </s>
-0.4731 BUFFALO THEN TO
-0.9660 BUFFALO THROUGH CLEVELAND
-0.7741 BUFFALO THROUGH PITTSBURGH
-0.7741 BUFFALO THROUGH SYRACUSE
-0.9660 BUFFALO THROUGH TORONTO
-1.2914 BUFFALO TO BOSTON
-1.4583 BUFFALO TO CHARLESTON
-1.6503 BUFFALO TO CHICAGO
-0.9853 BUFFALO TO CLEVELAND
-1.4583 BUFFALO TO DETROIT
-1.6503 BUFFALO TO MILWAUKEE
-1.4583 BUFFALO TO MONTREAL
-1.6503 BUFFALO TO PITTSBURGH
-1.6503 BUFFALO TO RICHMOND
-0.8092 BUFFALO TO SYRACUSE
-1.2914 BUFFALO TO TOLEDO
-0.6495 BUFFALO TO TORONTO
-0.5858 BUFFALO VIA CLEVELAND
-0.0077 BURLINGTON </s> <s>
-0.6650 BURLINGTON AND MONTREAL
-0.0580 BURLINGTON DOWN TO
-0.4889 BURLINGTON INSTEAD </s>
-0.4889 BURLINGTON INSTEAD OF
-0.3640 BURLINGTON THROUGH ALBANY
-0.5441 BURLINGTON TO ALBANY
-1.1512 BURLINGTON TO BALTIMORE
-1.5101 BURLINGTON TO BOSTON
-1.1512 BURLINGTON TO CLEVELAND
-1.1512 BURLINGTON TO MONTREAL
-1.5101 BURLINGTON TO NEW_YORK
-1.3182 BURLINGTON TO SCRANTON
-1.3182 BURLINGTON TO SYRACUSE
-1.3182 BURLINGTON TO TORONTO
-0.1879 BUT DON'T GO
-0.2970 BUT GO DIRECTLY
-0.1879 BUTTON FOR A
-0.0458 BY WAY OF
-0.1879 BYE </s> <s>
-0.1879 BYE BYE </s>
-0.6492 CAN WE GO
-0.4822 CAN WE MOVE
-0.8411 CAN WE START
-0.1879 CAN'T FIGURE IT
-0.0458 CANANDAIGUA </s> <s>
-0.3640 CANANDAIGUA TO MOUNT_MORRIS
-0.0102 CANCEL </s> <s>
-0.3640 CANCEL CANCEL </s>
-0.0706 CANCEL THAT </s>
-1.4260 CANCEL THAT LAST
-1.8990 CANCEL THAT PLEASE
-1.0902 CANCEL THAT ROUTE
-1.6111 CANCEL THE DETROIT
-1.4192 CANCEL THE LAST
-1.4192 CANCEL THE PLAN
-0.2619 CANCEL THE ROUTE
-0.7700 CANCEL THE TRAIN
-1.4192 CANCEL THE TRIP
-0.0669 CANCEL THIS ROUTE
-0.1720 CANCEL TRAIN FROM
-0.1879 CAN_YOU UNDERSTAND MY
-0.1879 CARE </s> <s>
-0.1720 CHANGE </s> <s>
-0.1879 CHAR- </s> <s>
-0.1879 CHARL- TO CHARLOTTE
-0.0032 CHARLESTON </s> <s>
-1.5203 CHARLESTON AND BUFFALO
-1.3284 CHARLESTON AND CHARLOTTE
-0.9345 CHARLESTON AND CINCINNATI
-0.9345 CHARLESTON AND COLUMBUS
-1.3284 CHARLESTON AND INDIANAPOLIS
-1.5203 CHARLESTON AND PITTSBURGH
-0.6792 CHARLESTON AND RICHMOND
-0.9345 CHARLESTON AND THEN
-1.3284 CHARLESTON AND TOLEDO
-0.1879 CHARLESTON COLUMBUS AND
-0.1300 CHARLESTON GO TO
-0.2218 CHARLESTON INSTEAD </s>
-0.5280 CHARLESTON INSTEAD OF
-0.0792 CHARLESTON PITTSBURGH AND
-0.1879 CHARLESTON TAKE IT
-0.8411 CHARLESTON THEN CINCINNATI
-0.4822 CHARLESTON THEN TO
-0.5858 CHARLESTON THROUGH PITTSBURGH
-1.6294 CHARLESTON TO BALTIMORE
-1.8214 CHARLESTON TO BOSTON
-1.6294 CHARLESTON TO BUFFALO
-1.0894 CHARLESTON TO CHARLOTTE
-1.8214 CHARLESTON TO CHICAGO
-1.0894 CHARLESTON TO CINCINNATI
-1.8214 CHARLESTON TO CLEVELAND
-1.8214 CHARLESTON TO COLUMBUS
-1.0314 CHARLESTON TO LEXINGTON
-1.4625 CHARLESTON TO MILWAUKEE
-1.4625 CHARLESTON TO PITTSBURGH
-1.0314 CHARLESTON TO RALEIGH
-0.8553 CHARLESTON TO RICHMOND
-1.6294 CHARLESTON TO SCRANTON
-1.8214 CHARLESTON TO SYRACUSE
-1.8214 CHARLESTON TO TORONTO
-0.9803 CHARLESTON TO WASHINGTON
-0.1720 CHARLESTON TRAIN TO
-0.0041 CHARLOTTE </s> <s>
-0.9660 CHARLOTTE AND GO
-0.9660 CHARLOTTE AND RALEIGH
-0.7741 CHARLOTTE AND TORONTO
-0.1761 CHARLOTTE INSTEAD </s>
-0.6072 CHARLOTTE INSTEAD OF
-0.4889 CHARLOTTE RALEIGH RICHMOND
-0.1879 CHARLOTTE THEN TO
-0.3640 CHARLOTTE THROUGH RALEIGH
-1.1263 CHARLOTTE TO ATLANTA
-0.9154 CHARLOTTE TO BOSTON
-1.1263 CHARLOTTE TO CHARLESTON
-1.0751 CHARLOTTE TO CHICAGO
-1.5574 CHARLOTTE TO CINCINNATI
-1.1843 CHARLOTTE TO LEXINGTON
-1.7243 CHARLOTTE TO MILWAUKEE
-1.0294 CHARLOTTE TO MONTREAL
-1.5574 CHARLOTTE TO NEW_YORK
-1.3304 CHARLOTTE TO PITTSBURGH
-0.9880 CHARLOTTE TO RALEIGH
-1.1843 CHARLOTTE TO RICHMOND
-1.2512 CHARLOTTE TO WASHINGTON
-0.7320 CHARLOTTE TRAIN </s>
-0.1461 CHARLOTTE TRAIN TO
-0.1300 CHARLOTTE UP TO
-0.1879 CHICA- </s> <s>
-0.0034 CHICAGO </s> <s>
-1.1879 CHICAGO AND INDIANAPOLIS
-0.9959 CHICAGO AND MILWAUKEE
-0.9959 CHICAGO AND RALEIGH
-1.1879 CHICAGO AND SEND
-1.1879 CHICAGO AND SYRACUSE
-1.1879 CHICAGO AND TOLEDO
-0.1879 CHICAGO DIRECTLY TO
-0.1720 CHICAGO DOWN TO
-0.1300 CHICAGO GO THROUGH
-0.1879 CHICAGO INDIANAPOLIS AND
-0.2970 CHICAGO INSTEAD </s>
-0.1300 CHICAGO PITTSBURGH AND
-0.5858 CHICAGO THEN TO
-0.5858 CHICAGO THEN TOLEDO
-0.4889 CHICAGO THROUGH INDIANAPOLIS
-1.4311 CHICAGO TO ATLANTA
-1.5980 CHICAGO TO CHARLESTON
-1.7900 CHICAGO TO CINCINNATI
-0.9031 CHICAGO TO CLEVELAND
-1.1249 CHICAGO TO DETROIT
-1.0000 CHICAGO TO INDIANAPOLIS
-1.7900 CHICAGO TO LEXINGTON
-0.7891 CHICAGO TO MILWAUKEE
-1.4311 CHICAGO TO PITTSBURGH
-1.7900 CHICAGO TO RICHMOND
-1.0580 CHICAGO TO SYRACUSE
-1.0000 CHICAGO TO TOLEDO
-1.5980 CHICAGO TO TORONTO
-1.5980 CHICAGO TO WASHINGTON
-0.3640 CHICAGO TOLEDO CLEVELAND
-0.5858 CHICAGO TRAIN </s>
-0.5858 CHICAGO TRAIN TO
-0.8410 CHICAGO VIA BUFFALO
-0.8410 CHICAGO VIA INDIANAPOLIS
-0.8410 CHICAGO VIA PITTSBURGH
-1.0330 CHICAGO VIA TOLEDO
-0.1879 CINCINNA- </s> <s>
-0.0038 CINCINNATI </s> <s>
-0.4949 CINCINNATI AND CHARLESTON
-1.2848 CINCINNATI AND PITTSBURGH
-0.5528 CINCINNATI AND THEN
-0.1300 CINCINNATI CHARLESTON AND
-0.1879 CINCINNATI DIRECTLY TO
-0.1879 CINCINNATI FIRST </s>
-0.1871 CINCINNATI INSTEAD </s>
-0.5229 CINCINNATI INSTEAD OF
-0.7900 CINCINNATI THEN CHARLESTON
-0.5980 CINCINNATI THEN TO
-0.5858 CINCINNATI THROUGH COLUMBUS
-1.6243 CINCINNATI TO ATLANTA
-0.7253 CINCINNATI TO CHARLESTON
-1.8163 CINCINNATI TO CHARLOTTE
-1.2304 CINCINNATI TO CHICAGO
-1.0263 CINCINNATI TO COLUMBUS
-1.0843 CINCINNATI TO DETROIT
-1.0263 CINCINNATI TO INDIANAPOLIS
-0.6741 CINCINNATI TO LEXINGTON
-1.8163 CINCINNATI TO MILWAUKEE
-1.8163 CINCINNATI TO PITTSBURGH
-1.6243 CINCINNATI TO RALEIGH
-1.4574 CINCINNATI TO TOLEDO
-0.0669 CINCINNATI TRAIN TO
-0.0792 CINCINNATI UP TO
-0.5858 CINCINNATI VIA COLUMBUS
-0.0580 CITY </s> <s>
-0.4889 CLEAR THE ROUTE
-0.0032 CLEVELAND </s> <s>
-0.5883 CLEVELAND AND BUFFALO
-0.7924 CLEVELAND AND DETROIT
-1.3782 CLEVELAND AND RICHMOND
-1.1863 CLEVELAND AND THE
-1.3782 CLEVELAND AND TORONTO
-0.1720 CLEVELAND AS WELL
-0.1879 CLEVELAND BUFFALO TO
-0.3640 CLEVELAND GO THROUGH
-0.4822 CLEVELAND INSTEAD </s>
-0.2553 CLEVELAND INSTEAD OF
-0.1879 CLEVELAND OR BUFFALO
-0.1879 CLEVELAND OVER TO
-0.1720 CLEVELAND PLEASE </s>
-0.1720 CLEVELAND THEN BUFFALO
-0.5400 CLEVELAND THROUGH BUFFALO
-0.7320 CLEVELAND THROUGH TOLEDO
-1.5533 CLEVELAND TO ALBANY
-0.9114 CLEVELAND TO BOSTON
-1.0253 CLEVELAND TO BUFFALO
-1.7202 CLEVELAND TO CHARLESTON
-0.9114 CLEVELAND TO CHICAGO
-1.5533 CLEVELAND TO CINCINNATI
-1.9122 CLEVELAND TO COLUMBUS
-0.9839 CLEVELAND TO DETROIT
-1.9122 CLEVELAND TO LEXINGTON
-1.9122 CLEVELAND TO MILWAUKEE
-1.0711 CLEVELAND TO MONTREAL
-1.7202 CLEVELAND TO PITTSBURGH
-1.1222 CLEVELAND TO RALEIGH
-1.7202 CLEVELAND TO SYRACUSE
-1.1802 CLEVELAND TO TOLEDO
-1.2472 CLEVELAND TO TORONTO
-1.9122 CLEVELAND TO WASHINGTON
-0.3640 CLEVELAND TOLEDO CHICAGO
-0.5858 CLEVELAND VIA TOLEDO
-0.1879 CLEVELAND WASHINGTON AND
-0.0050 COLUMBUS </s> <s>
-0.3979 COLUMBUS AND CINCINNATI
-1.3640 COLUMBUS AND SCRANTON
-0.6990 COLUMBUS AND THEN
-0.7782 COLUMBUS AND TOLEDO
-0.2970 COLUMBUS CINCINNATI AND
-0.1879 COLUMBUS CLEVELAND AND
-0.1879 COLUMBUS DETROIT AND
-0.1879 COLUMBUS DOWN TO
-0.1165 COLUMBUS INSTEAD </s>
-0.7584 COLUMBUS INSTEAD OF
-0.3061 COLUMBUS PITTSBURGH AND
-0.1879 COLUMBUS SEND IT
-0.1879 COLUMBUS SHOULD STAY
-0.4731 COLUMBUS THEN CINCINNATI
-0.5858 COLUMBUS THROUGH CINCINNATI
-0.5858 COLUMBUS THROUGH TOLEDO
-1.7900 COLUMBUS TO ATLANTA
-1.7900 COLUMBUS TO BALTIMORE
-1.4311 COLUMBUS TO CHARLESTON
-1.7900 COLUMBUS TO CHICAGO
-0.7570 COLUMBUS TO CINCINNATI
-1.0000 COLUMBUS TO CLEVELAND
-1.1249 COLUMBUS TO DETROIT
-1.2041 COLUMBUS TO INDIANAPOLIS
-1.4311 COLUMBUS TO LEXINGTON
-1.5980 COLUMBUS TO PITTSBURGH
-1.0000 COLUMBUS TO RALEIGH
-1.7900 COLUMBUS TO SYRACUSE
-0.7891 COLUMBUS TO TOLEDO
-0.7900 COLUMBUS TOLEDO CHICAGO
-0.4311 COLUMBUS TOLEDO CLEVELAND
-0.0512 COLUMBUS TRAIN TO
-0.1879 COMMAND </s> <s>
-0.8089 CONTINUE FROM CHICAGO
-1.0008 CONTINUE FROM CINCINNATI
-1.0008 CONTINUE FROM NEW_YORK
-0.8411 CONTINUE ON THROUGH
-0.1091 CONTINUE ON TO
-0.3640 CONTINUE THE ROUTE
-0.4889 CONTINUE THROUGH TORONTO
-1.4054 CONTINUE TO COLUMBUS
-1.4054 CONTINUE TO LEXING-
-1.2134 CONTINUE TO LEXINGTON
-1.4054 CONTINUE TO PITTSBURGH
-1.2134 CONTINUE TO RICHMOND
-1.0465 CONTINUE TO SYRACUSE
-1.2134 CONTINUE TO TOLEDO
-1.4054 CONTINUE TO WASHINGTON
-0.3640 CURRENTLY AT LEXINGTON
-0.7320 DANSVILLE TO BATH
-0.7320 DANSVILLE TO EAST_AURORA
-0.0458 DESTINATION </s> <s>
-0.0580 DESTINATIONS </s> <s>
-0.0030 DETROIT </s> <s>
-0.1879 DETROIT AGAIN </s>
-0.7482 DETROIT AND CHARLOTTE
-1.3340 DETROIT AND PHILADELPHIA
-0.7482 DETROIT AND THEN
-0.6021 DETROIT AND TORONTO
-0.1720 DETROIT CLEVELAND AND
-0.1879 DETROIT DOWN TO
-0.2970 DETROIT FROM CLEVELAND
-0.3640 DETROIT GO THROUGH
-0.1249 DETROIT INSTEAD </s>
-0.7900 DETROIT INSTEAD OF
-0.2970 DETROIT THEN TOLEDO
-0.5858 DETROIT THROUGH TOLEDO
-1.8869 DETROIT TO ALBANY
-1.3010 DETROIT TO ATLANTA
-1.2218 DETROIT TO BUFFALO
-1.6949 DETROIT TO CHARLOTTE
-1.6949 DETROIT TO CHICAGO
-1.3010 DETROIT TO CLEVELAND
-1.5280 DETROIT TO COLUMBUS
-1.2218 DETROIT TO LEXINGTON
-0.6990 DETROIT TO MILWAUKEE
-1.6949 DETROIT TO MONTREAL
-1.3010 DETROIT TO PITTSBURGH
-1.6949 DETROIT TO RALEIGH
-0.7447 DETROIT TO TOLEDO
-0.9586 DETROIT TO TORONTO
-1.5280 DETROIT TO WASHINGTON
-0.2970 DETROIT TOLEDO COLUMBUS
-0.3640 DETROIT TORONTO AND
-0.7900 DETROIT TRAIN </s>
-0.1249 DETROIT TRAIN TO
-0.3640 DETROIT VIA TOLEDO
-0.1879 DID </s> <s>
-0.1879 DIFFERENT ROUTE </s>
-0.1879 DIRECT ROUTE </s>
-0.1879 DIRECTLY </s> <s>
-1.4666 DIRECTLY FROM CHARLESTON
-1.4666 DIRECTLY FROM CHICAGO
-0.8808 DIRECTLY FROM CINCINNATI
-0.8808 DIRECTLY FROM COLUMBUS
-1.4666 DIRECTLY FROM INDIANAPOLIS
-1.4666 DIRECTLY FROM NEW_YORK
-1.4666 DIRECTLY FROM PHILADELPHIA
-1.4666 DIRECTLY FROM RALEIGH
-1.1078 DIRECTLY FROM RICHMOND
-1.4666 DIRECTLY FROM SCRANTON
-1.2747 DIRECTLY FROM SYRACUSE
-1.4666 DIRECTLY FROM TOLEDO
-1.3782 DIRECTLY TO ALBANY
-1.1863 DIRECTLY TO BUFFALO
-1.0193 DIRECTLY TO CHARLESTON
-1.3782 DIRECTLY TO CINCINNATI
-1.3782 DIRECTLY TO INDIANAPOLIS
-0.7924 DIRECTLY TO RICHMOND
-1.3782 DIRECTLY TO SCRANTON
-1.3782 DIRECTLY TO SYRACUSE
-1.0193 DIRECTLY TO TOLEDO
-0.3640 DO I GET
-0.1879 DO I_NEED TO
-0.4771 DO NOT GO
-1.2091 DO NOT RELEASE
-1.2091 DO NOT TAKE
-1.0171 DO NOT USE
-0.8502 DO NOT WANT
-0.1879 DO NOW </s>
-0.1192 DO THAT </s>
-1.2848 DO THAT GO
-0.1879 DOES IT TAKE
-0.1879 DOING </s> <s>
-0.3640 DON'T CARE </s>
-0.0202 DON'T DO THAT
-1.1303 DON'T GO FROM
-0.1761 DON'T GO THROUGH
-0.8573 DON'T GO TO
-0.9542 DON'T GO VIA
-0.2970 DON'T SEND IT
-0.2269 DON'T TAKE THE
-0.8869 DON'T USE BALTIMORE
-0.8869 DON'T USE CHICAGO
-0.8869 DON'T USE CLEVELAND
-0.6021 DON'T WANT THE
-0.1549 DON'T WANT TO
-0.1720 DON'T WORRY ABOUT
-0.0013 DONE </s> <s>
-0.0580 DONE NOW </s>
-0.1720 DONE THANK YOU
-0.1879 DOWN THE SPEECH
-0.9912 DOWN TO ATLANTA
-1.5771 DOWN TO BALTIMORE
-1.5771 DOWN TO CHARLOTTE
-0.9912 DOWN TO LEXINGTON
-1.2182 DOWN TO NEW_YORK
-1.3851 DOWN TO PHILADELPHIA
-1.5771 DOWN TO PHILLY
-0.6902 DOWN TO RALEIGH
-1.3851 DOWN TO RICHMOND
-1.3851 DOWN TO SCRANTON
-1.5771 DOWN TO TORONTO
-1.2182 DOWN TO WASHINGTON
-0.1879 DREW FROM CHARLESTON
-0.1720 DRIVE THE TRAIN
-0.0322 EAST_AURORA </s> <s>
-0.1300 EITHER </s> <s>
-0.3640 ELSE DO I_NEED
-0.1879 END THE GAME
-1.5303 ENGINE AT ATLANTA
-1.3384 ENGINE AT BOSTON
-1.1714 ENGINE AT CHARLESTON
-1.5303 ENGINE AT CHARLOTTE
-1.5303 ENGINE AT CINCINNATI
-1.3384 ENGINE AT INDIANAPOLIS
-0.7404 ENGINE AT MILWAUKEE
-1.3384 ENGINE AT PHILADELPHIA
-0.7984 ENGINE AT RICHMOND
-1.3384 ENGINE AT SYRACUSE
-1.5303 ENGINE AT WASHINGTON
-1.2293 ENGINE FROM CHARLESTON
-1.2293 ENGINE FROM CHARLOTTE
-1.2293 ENGINE FROM INDIANAPOLIS
-1.2293 ENGINE FROM MILWAUKEE
-1.2293 ENGINE FROM MONTREAL
-1.2293 ENGINE FROM SCRANTON
-1.2293 ENGINE FROM SYRACUSE
-1.0373 ENGINE FROM WASHINGTON
-0.8869 ENGINE IN CLEVELAND
-0.6949 ENGINE IN INDIANAPOLIS
-0.8869 ENGINE IN PHILADELPHIA
-0.1879 ENGINE THAT IS
-0.3061 ERASE THAT ROUTE
-0.8869 ERASE THE PATH
-0.3010 ERASE THE ROUTE
-0.0792 EXCELLENT </s> <s>
-0.1720 EXCELLENT I'M DONE
-0.3640 FIGURE IT OUT
-0.0669 FINALLY I_WANT TO
-0.1761 FINALLY LET'S GO
-0.6072 FINALLY LET'S TAKE
-0.1879 FINALLY TAKE THE
-0.3640 FIND A ROUTE
-0.0300 FINE </s> <s>
-0.0512 FINE I'M DONE
-0.0202 FINISHED </s> <s>
-0.1879 FINISHED THANK YOU
-0.0669 FIRST </s> <s>
-0.1879 FOR A MOMENT
-0.0792 FOR THE TRAIN
-0.3640 FOR THIS TRAIN
-0.1879 FORGET </s> <s>
-0.0843 FORGET IT </s>
-1.2264 FORGET IT LET'S
-0.0580 FORGET THAT </s>
-1.2671 FORGET THAT LAST
-0.4889 FORGET THE TRAIN
-0.1720 FORGET THIS ROUTE
-0.0669 FRANKLINVILLE </s> <s>
-0.6492 FROM <UNK> <UNK>
-0.8411 FROM <UNK> OVER
-0.1720 FROM </s> <s>
-1.6726 FROM ALBANY </s>
-1.5057 FROM ALBANY DOWN
-1.8646 FROM ALBANY GO
-1.5057 FROM ALBANY THROUGH
-0.0912 FROM ALBANY TO
-1.6772 FROM ATLANTA </s>
-1.0792 FROM ATLANTA THROUGH
-0.1189 FROM ATLANTA TO
-0.9823 FROM ATLANTA UP
-1.4889 FROM BALTIMORE </s>
-1.4889 FROM BALTIMORE OVER
-1.4889 FROM BALTIMORE THROUGH
-0.1549 FROM BALTIMORE TO
-1.1300 FROM BALTIMORE UP
-0.3061 FROM BATH TO
-1.5771 FROM BOSTON </s>
-0.9912 FROM BOSTON THROUGH
-0.1461 FROM BOSTON TO
-1.5944 FROM BUFFALO DOWN
-1.0086 FROM BUFFALO THROUGH
-0.1394 FROM BUFFALO TO
-0.7570 FROM BURLINGTON DOWN
-1.2970 FROM BURLINGTON THROUGH
-0.1549 FROM BURLINGTON TO
-0.3640 FROM CANANDAIGUA TO
-1.3540 FROM CHARLESTON GO
-0.0779 FROM CHARLESTON TO
-1.1996 FROM CHARLOTTE </s>
-1.6726 FROM CHARLOTTE GO
-1.8646 FROM CHARLOTTE THROUGH
-0.0856 FROM CHARLOTTE TO
-1.6726 FROM CHARLOTTE UP
-1.7442 FROM CHICAGO DIRECTLY
-1.5523 FROM CHICAGO DOWN
-1.5523 FROM CHICAGO THROUGH
-0.0865 FROM CHICAGO TO
-1.6998 FROM CINCINNATI DIRECTLY
-1.6998 FROM CINCINNATI THROUGH
-0.1139 FROM CINCINNATI TO
-1.1139 FROM CINCINNATI UP
-1.3010 FROM CLEVELAND </s>
-1.8869 FROM CLEVELAND OVER
-1.8869 FROM CLEVELAND THROUGH
-0.0506 FROM CLEVELAND TO
-1.6029 FROM COLUMBUS DOWN
-1.6029 FROM COLUMBUS SHOULD
-0.0825 FROM COLUMBUS TO
-0.1249 FROM DANSVILLE TO
-1.2695 FROM DETROIT THROUGH
-0.0442 FROM DETROIT TO
-0.1879 FROM HORNELL TO
-1.2390 FROM INDIANAPOLIS THROUGH
-0.1127 FROM INDIANAPOLIS TO
-0.9611 FROM LEXINGTON </s>
-1.0280 FROM LEXINGTON THROUGH
-0.1530 FROM LEXINGTON TO
-1.6930 FROM LEXINGTON VIA
-0.2269 FROM LYONS TO
-1.5523 FROM MILWAUKEE </s>
-1.7442 FROM MILWAUKEE DOWN
-1.5523 FROM MILWAUKEE SHOULD
-1.0792 FROM MILWAUKEE THROUGH
-0.1170 FROM MILWAUKEE TO
-1.6680 FROM MONTREAL </s>
-1.6680 FROM MONTREAL AND
-1.5011 FROM MONTREAL DOWN
-1.2742 FROM MONTREAL THROUGH
-0.1039 FROM MONTREAL TO
-1.3853 FROM NEW_YORK </s>
-1.7442 FROM NEW_YORK DOWN
-1.7442 FROM NEW_YORK OVER
-0.0939 FROM NEW_YORK TO
-1.7442 FROM NEW_YORK VIA
-0.1963 FROM PENN_YAN TO
-0.9283 FROM PENN_YAN UP
-1.4431 FROM PHILADELPHIA </s>
-0.1249 FROM PHILADELPHIA TO
-0.9031 FROM PHILADELPHIA UP
-1.0000 FROM PITTSBURGH GO
-1.0000 FROM PITTSBURGH THROUGH
-0.1308 FROM PITTSBURGH TO
-1.3133 FROM RALEIGH </s>
-1.6722 FROM RALEIGH DIRECTLY
-1.6722 FROM RALEIGH THROUGH
-0.1321 FROM RALEIGH TO
-1.0072 FROM RALEIGH UP
-0.0479 FROM RICHMOND TO
-1.4774 FROM SCRANTON </s>
-1.8363 FROM SCRANTON AGAIN
-1.6443 FROM SCRANTON DOWN
-1.6443 FROM SCRANTON GO
-1.8363 FROM SCRANTON THROUGH
-0.1105 FROM SCRANTON TO
-1.8363 FROM SCRANTON UP
-0.1879 FROM SODUS TO
-1.5210 FROM SYRACUSE </s>
-1.7129 FROM SYRACUSE DIRECTLY
-1.7129 FROM SYRACUSE DOWN
-1.0479 FROM SYRACUSE THROUGH
-0.1271 FROM SYRACUSE TO
-1.5771 FROM TOLEDO GO
-1.5771 FROM TOLEDO THROUGH
-0.0881 FROM TOLEDO TO
-1.7129 FROM TORONTO </s>
-1.5210 FROM TORONTO THROUGH
-0.0779 FROM TORONTO TO
-0.7900 FROM UH RALEIGH
-0.0872 FROM WARSAW TO
-0.0596 FROM WASHINGTON TO
-0.3640 FROM WATKINS_GLEN TO
-0.0580 GENEVA </s> <s>
-0.0580 GET A TRAIN
-0.1879 GET ONE TRAIN
-0.3939 GET RID OF
-0.5858 GET RID OF_THE
-0.0792 GET THE TRAIN
-1.7257 GET TO ALBANY
-1.1399 GET TO ATLANTA
-1.7257 GET TO BALTIMORE
-1.5338 GET TO BOSTON
-1.7257 GET TO BUFFALO
-1.5338 GET TO BURLINGTON
-1.7257 GET TO CHARLESTON
-1.1399 GET TO CHICAGO
-1.3668 GET TO CLEVELAND
-1.5338 GET TO COLUMBUS
-1.7257 GET TO INDIANAPOLIS
-1.5338 GET TO LEXINGTON
-1.7257 GET TO PHILADELPHIA
-0.9938 GET TO PITTSBURGH
-1.3668 GET TO RICHMOND
-1.5338 GET TO SCRANTON
-1.0607 GET TO SYRACUSE
-1.3668 GET TO WASHINGTON
-0.1300 GET TRAINS TO
-0.0414 GO </s> <s>
-0.1720 GO ANY PLACE
-0.0792 GO BACK TO
-0.1394 GO DIRECTLY FROM
-1.5944 GO DIRECTLY THROUGH
-0.6284 GO DIRECTLY TO
-2.1232 GO FROM <UNK>
-1.1887 GO FROM ALBANY
-1.3170 GO FROM ATLANTA
-1.6180 GO FROM BALTIMORE
-2.5171 GO FROM BATH
-1.5434 GO FROM BOSTON
-1.4604 GO FROM BUFFALO
-1.6180 GO FROM BURLINGTON
-2.7090 GO FROM CANANDAIGUA
-1.4999 GO FROM CHARLESTON
-1.4797 GO FROM CHARLOTTE
-1.5211 GO FROM CHICAGO
-1.4604 GO FROM CINCINNATI
-1.3308 GO FROM CLEVELAND
-1.4604 GO FROM COLUMBUS
-2.3501 GO FROM DANSVILLE
-1.3037 GO FROM DETROIT
-2.7090 GO FROM HORNELL
-2.5171 GO FROM INDIANAPOLIS
-1.4420 GO FROM LEXINGTON
-2.3501 GO FROM LYONS
-1.6180 GO FROM MILWAUKEE
-1.2540 GO FROM MONTREAL
-2.7090 GO FROM MOUNT_MORRIS
-1.3450 GO FROM NEW_YORK
-2.1232 GO FROM PENN_YAN
-1.6180 GO FROM PHILADELPHIA
-1.6760 GO FROM PITTSBURGH
-1.4420 GO FROM RALEIGH
-1.3750 GO FROM RICHMOND
-1.5211 GO FROM SCRANTON
-1.3750 GO FROM SYRACUSE
-2.7090 GO FROM THE
-1.3750 GO FROM TOLEDO
-1.4072 GO FROM TORONTO
-2.3501 GO FROM UH
-1.9191 GO FROM WASHINGTON
-0.1879 GO NOW FROM
-1.1421 GO ON FROM
-0.0669 GO ON TO
-0.1300 GO SOUTH TO
-0.1879 GO TAKE THE
-0.1879 GO THERE </s>
-1.4046 GO THROUGH ALBANY
-1.5643 GO THROUGH ATLANTA
-2.4054 GO THROUGH AVON
-1.7404 GO THROUGH BALTIMORE
-1.1206 GO THROUGH BUFFALO
-2.2134 GO THROUGH BURLINGTON
-1.1963 GO THROUGH CHARLESTON
-1.5185 GO THROUGH CHARLOTTE
-1.6734 GO THROUGH CHICAGO
-1.0134 GO THROUGH CINCINNATI
-1.5643 GO THROUGH CLEVELAND
-1.3724 GO THROUGH COLUMBUS
-1.4771 GO THROUGH DETROIT
-2.4054 GO THROUGH EAST_AURORA
-1.3144 GO THROUGH INDIANAPOLIS
-1.4393 GO THROUGH LEXINGTON
-1.2881 GO THROUGH NEW_YORK
-1.4771 GO THROUGH PHILADELPHIA
-1.2632 GO THROUGH PITTSBURGH
-2.0465 GO THROUGH RALEIGH
-1.8195 GO THROUGH RICHMOND
-1.1383 GO THROUGH SCRANTON
-1.2881 GO THROUGH SYRACUSE
-1.1761 GO THROUGH TOLEDO
-1.5643 GO THROUGH TORONTO
-2.4054 GO THROUGH WASHINGTON
-1.8633 GO TO <UNK>
-1.7841 GO TO ALBANY
-1.5623 GO TO ATLANTA
-2.4492 GO TO AVON
-1.5209 GO TO BALTIMORE
-1.5623 GO TO BOSTON
-1.4483 GO TO BUFFALO
-1.5623 GO TO BURLINGTON
-1.3862 GO TO CHARLESTON
-1.5623 GO TO CHARLOTTE
-1.4483 GO TO CHICAGO
-1.6592 GO TO CINCINNATI
-1.5623 GO TO CLEVELAND
-1.8633 GO TO COLUMBUS
-1.2835 GO TO DETROIT
-2.0903 GO TO EAST_AURORA
-2.2572 GO TO INDIANAPOLIS
-1.2613 GO TO LEXINGTON
-1.4483 GO TO MILWAUKEE
-1.3862 GO TO MONTREAL
-1.2401 GO TO NEW_YORK
-1.5623 GO TO PHILADELPHIA
-1.6081 GO TO PITTSBURGH
-1.3582 GO TO RALEIGH
-1.3318 GO TO RICHMOND
-1.4483 GO TO SCRANTON
-1.3582 GO TO SYRACUSE
-2.4492 GO TO THE
-1.5209 GO TO TOLEDO
-1.7841 GO TO TORONTO
-1.0999 GO TO WASHINGTON
-2.4492 GO TO WASHINGTON_D_C
-2.4492 GO TO YORKSHIRE
-0.1461 GO UP TO
-1.7848 GO VIA <UNK>
-1.6179 GO VIA ATLANTA
-1.6179 GO VIA BALTIMORE
-1.0899 GO VIA BUFFALO
-1.1868 GO VIA CHARLESTON
-1.7848 GO VIA CHARLOTTE
-1.0485 GO VIA CINCINNATI
-1.7848 GO VIA CLEVELAND
-0.9760 GO VIA COLUMBUS
-1.6179 GO VIA DETROIT
-1.3909 GO VIA INDIANAPOLIS
-1.7848 GO VIA LEXINGTON
-1.3909 GO VIA NEW_YORK
-1.7848 GO VIA PHILADELPHIA
-1.1357 GO VIA PITTSBURGH
-1.9768 GO VIA RALEIGH
-1.7848 GO VIA RICHMOND
-1.9768 GO VIA SCRANTON
-1.6179 GO VIA SYRACUSE
-1.3118 GO VIA TOLEDO
-1.2448 GO VIA TORONTO
-1.6179 GO VIA WASHINGTON
-0.0458 GOAL </s> <s>
-0.0458 GOALS </s> <s>
-0.3939 GOES TO BUFFALO
-0.1879 GOING </s> <s>
-0.5858 GOING FROM CLEVELAND
-0.9283 GOING THROUGH RICHMOND
-0.0147 GOOD </s> <s>
-0.1300 GOOD I'M DONE
-0.1720 GOOD JOB </s>
-0.5858 GOOD LET'S TAKE
-0.6072 GOOD NOW LET'S
-0.9660 GOOD NOW TAKE
-0.1879 GOOD TAKE THE
-0.1879 GOT AN ERROR
-0.0212 GREAT </s> <s>
-0.0081 GREAT I'M DONE
-0.8897 GREAT LET'S GO
-0.1576 GREAT LET'S TAKE
-1.6193 GREAT NOW CONTINUE
-0.8873 GREAT NOW GO
-1.4273 GREAT NOW I
-0.8873 GREAT NOW I_WANT
-0.6910 GREAT NOW LET'S
-1.6193 GREAT NOW SEND
-0.5019 GREAT NOW TAKE
-0.3640 GREAT OKAY NOW
-0.3640 GREAT UH NOW
-0.1879 HAVE A TRAIN
-0.0669 HAVE THE TRAIN
-0.2269 HAVE TO GO
-0.0792 HELLO </s> <s>
-0.1879 HERE </s> <s>
-0.1720 HI </s> <s>
-0.1879 HI I_NEED TO
-0.1720 HI I_WANT TO
-0.1879 HOLD DOWN THE
-0.1879 HORNELL </s> <s>
-0.1879 HORNELL OKAY </s>
-0.1720 HOW DO I
-0.3061 HOW LONG DOES
-0.6650 HOW LONG IS
-0.0512 HOW MANY TRAINS
-0.1879 HOW_ABOUT IF WE
-0.1879 HUH </s> <s>
-0.7320 I <UNK> </s>
-0.5593 I ALSO NEED
-0.2071 I ALSO WANT
-1.3493 I ALSO WANT_TO
-0.1549 I AM DONE
-0.6949 I AM FINISHED
-0.1879 I CAN'T FIGURE
-0.1720 I DIDN'T WANT
-0.3061 I DO NOT
-0.6650 I DO NOW
-1.1099 I DON'T CARE
-0.1362 I DON'T WANT
-0.2970 I HAVE TO
-0.1720 I NEED TO
-0.9283 I SAID SEND
-0.1879 I SUPPOSED TO
-0.1383 I THINK WE'RE
-1.1421 I WANT GO
-0.0512 I WANT TO
-0.3061 I WANTED TO
-0.1091 I WANT_TO GO
-0.8411 I WANT_TO TAKE
-0.0280 I WOULD LIKE
-0.0105 I'D LIKE TO
-0.5858 I'M <UNK> </s>
-0.0238 I'M DONE </s>
-2.3640 I'M DONE AND
-2.3640 I'M DONE FOR
-1.6320 I'M DONE NOW
-2.1720 I'M DONE THANK
-0.0512 I'M FINISHED </s>
-0.1879 I'M HERE </s>
